{"learner":{"attributes":{"scikit_learn":"{\"_estimator_type\": \"regressor\"}"},"feature_names":[],"feature_types":[],"gradient_booster":{"model":{"cats":{"enc":[],"feature_segments":[],"sorted_idx":[]},"gbtree_model_param":{"num_parallel_tree":"1","num_trees":"400"},"iteration_indptr":[0,1,2,3,4,5,6,7,8,9,10,11,12,13,14,15,16,17,18,19,20,21,22,23,24,25,26,27,28,29,30,31,32,33,34,35,36,37,38,39,40,41,42,43,44,45,46,47,48,49,50,51,52,53,54,55,56,57,58,59,60,61,62,63,64,65,66,67,68,69,70,71,72,73,74,75,76,77,78,79,80,81,82,83,84,85,86,87,88,89,90,91,92,93,94,95,96,97,98,99,100,101,102,103,104,105,106,107,108,109,110,111,112,113,114,115,116,117,118,119,120,121,122,123,124,125,126,127,128,129,130,131,132,133,134,135,136,137,138,139,140,141,142,143,144,145,146,147,148,149,150,151,152,153,154,155,156,157,158,159,160,161,162,163,164,165,166,167,168,169,170,171,172,173,174,175,176,177,178,179,180,181,182,183,184,185,186,187,188,189,190,191,192,193,194,195,196,197,198,199,200,201,202,203,204,205,206,207,208,209,210,211,212,213,214,215,216,217,218,219,220,221,222,223,224,225,226,227,228,229,230,231,232,233,234,235,236,237,238,239,240,241,242,243,244,245,246,247,248,249,250,251,252,253,254,255,256,257,258,259,260,261,262,263,264,265,266,267,268,269,270,271,272,273,274,275,276,277,278,279,280,281,282,283,284,285,286,287,288,289,290,291,292,293,294,295,296,297,298,299,300,301,302,303,304,305,306,307,308,309,310,311,312,313,314,315,316,317,318,319,320,321,322,323,324,325,326,327,328,329,330,331,332,333,334,335,336,337,338,339,340,341,342,343,344,345,346,347,348,349,350,351,352,353,354,355,356,357,358,359,360,361,362,363,364,365,366,367,368,369,370,371,372,373,374,375,376,377,378,379,380,381,382,383,384,385,386,387,388,389,390,391,392,393,394,395,396,397,398,399,400],"tree_info":[0,0,0,0,0,0,0,0,0,0,0,0,0,0,0,0,0,0,0,0,0,0,0,0,0,0,0,0,0,0,0,0,0,0,0,0,0,0,0,0,0,0,0,0,0,0,0,0,0,0,0,0,0,0,0,0,0,0,0,0,0,0,0,0,0,0,0,0,0,0,0,0,0,0,0,0,0,0,0,0,0,0,0,0,0,0,0,0,0,0,0,0,0,0,0,0,0,0,0,0,0,0,0,0,0,0,0,0,0,0,0,0,0,0,0,0,0,0,0,0,0,0,0,0,0,0,0,0,0,0,0,0,0,0,0,0,0,0,0,0,0,0,0,0,0,0,0,0,0,0,0,0,0,0,0,0,0,0,0,0,0,0,0,0,0,0,0,0,0,0,0,0,0,0,0,0,0,0,0,0,0,0,0,0,0,0,0,0,0,0,0,0,0,0,0,0,0,0,0,0,0,0,0,0,0,0,0,0,0,0,0,0,0,0,0,0,0,0,0,0,0,0,0,0,0,0,0,0,0,0,0,0,0,0,0,0,0,0,0,0,0,0,0,0,0,0,0,0,0,0,0,0,0,0,0,0,0,0,0,0,0,0,0,0,0,0,0,0,0,0,0,0,0,0,0,0,0,0,0,0,0,0,0,0,0,0,0,0,0,0,0,0,0,0,0,0,0,0,0,0,0,0,0,0,0,0,0,0,0,0,0,0,0,0,0,0,0,0,0,0,0,0,0,0,0,0,0,0,0,0,0,0,0,0,0,0,0,0,0,0,0,0,0,0,0,0,0,0,0,0,0,0,0,0,0,0,0,0,0,0,0,0,0,0,0,0,0,0,0,0,0,0,0,0,0,0,0,0,0,0,0,0,0,0,0,0,0,0,0,0,0,0,0,0,0,0,0,0,0,0],"trees":[{"base_weights":[1.5575014E-2,3.9165223E-1,-3.6267076E-2,1.3543309E-2,1.8173779E-3,-8.7581664E-2,1.39798485E-2,-3.599915E-2,-2.7470762E-1,5.359932E-2,-1.5119721E-1,-3.5177985E-1,-6.802499E-2,4.899335E-3,-2.7727338E-3,-5.854328E-3,9.783134E-3,-1.11875795E-2,-4.544956E-3,-4.7600996E-3,4.5178127E-3],"categories":[],"categories_nodes":[],"categories_segments":[],"categories_sizes":[],"default_left":[0,0,0,0,0,0,0,0,0,0,0,0,0,0,0,0,0,0,0,0,0],"id":0,"left_children":[1,3,5,-1,-1,7,-1,9,11,13,15,17,19,-1,-1,-1,-1,-1,-1,-1,-1],"loss_changes":[4.826416E0,5.1530886E-1,5.5700192E0,0E0,0E0,1.860568E0,0E0,1.6280288E0,6.031282E-1,1.43199E0,1.4978862E0,1.8076897E-2,2.823194E-1,0E0,0E0,0E0,0E0,0E0,0E0,0E0,0E0],"parents":[2147483647,0,0,1,1,2,2,5,5,7,7,8,8,9,9,10,10,11,11,12,12],"right_children":[2,4,6,-1,-1,8,-1,10,12,14,16,18,20,-1,-1,-1,-1,-1,-1,-1,-1],"split_conditions":[-1.2562428E0,1.1575638E-1,1.6433371E0,1.3543309E-2,1.8173779E-3,6.7201984E-1,1.39798485E-2,1.6898927E-1,1.3229928E0,2.9996228E-1,7.173483E-1,1.3592441E0,-1.0009169E-2,4.899335E-3,-2.7727338E-3,-5.854328E-3,9.783134E-3,-1.11875795E-2,-4.544956E-3,-4.7600996E-3,4.5178127E-3],"split_indices":[100,101,101,0,0,101,0,9,101,22,88,100,35,0,0,0,0,0,0,0,0],"split_type":[0,0,0,0,0,0,0,0,0,0,0,0,0,0,0,0,0,0,0,0,0],"sum_hessian":[2.44E2,2.9E1,2.15E2,2.4E1,5E0,1.96E2,1.9E1,1.55E2,4.1E1,8.7E1,6.8E1,2.9E1,1.2E1,5E1,3.7E1,6.3E1,5E0,2.5E1,4E0,9E0,3E0],"tree_param":{"num_deleted":"0","num_feature":"105","num_nodes":"21","size_leaf_vector":"1"}},{"base_weights":[1.235238E-2,3.9311594E-1,-4.0061474E-2,1.324422E-2,1.5810665E-3,-8.020933E-2,1.3289554E-2,-1.5936203E-2,-2.7876705E-1,1.0028649E-1,-1.06871195E-1,-3.5599372E-1,-1.1566154E-1,5.95765E-3,-6.2077404E-3,3.660566E-3,-5.3157955E-3,-1.3532288E-2,-8.284335E-3,-0E0,-8.132076E-3],"categories":[],"categories_nodes":[],"categories_segments":[],"categories_sizes":[],"default_left":[0,0,0,0,0,0,0,0,0,0,0,0,0,0,0,0,0,0,0,0,0],"id":1,"left_children":[1,3,5,-1,-1,7,-1,9,11,13,15,17,19,-1,-1,-1,-1,-1,-1,-1,-1],"loss_changes":[4.7809305E0,4.0470648E-1,4.0524507E0,0E0,0E0,2.4419007E0,0E0,1.5755452E0,5.0367665E-1,2.0032218E0,1.3792031E0,3.8075686E-2,2.8693047E-1,0E0,0E0,0E0,0E0,0E0,0E0,0E0,0E0],"parents":[2147483647,0,0,1,1,2,2,5,5,7,7,8,8,9,9,10,10,11,11,12,12],"right_children":[2,4,6,-1,-1,8,-1,10,12,14,16,18,20,-1,-1,-1,-1,-1,-1,-1,-1],"split_conditions":[-1.2562428E0,1.1575638E-1,1.6433371E0,1.324422E-2,1.5810665E-3,6.7201984E-1,1.3289554E-2,1.4679543E-2,1.3229928E0,8.320458E-1,-2.3868957E-1,8.599863E-1,6.6072345E-2,5.95765E-3,-6.2077404E-3,3.660566E-3,-5.3157955E-3,-1.3532288E-2,-8.284335E-3,-0E0,-8.132076E-3],"split_indices":[100,101,101,0,0,101,0,9,101,17,95,100,100,0,0,0,0,0,0,0,0],"split_type":[0,0,0,0,0,0,0,0,0,0,0,0,0,0,0,0,0,0,0,0,0],"sum_hessian":[2.36E2,2.8E1,2.08E2,2.4E1,4E0,1.93E2,1.5E1,1.47E2,4.6E1,6.4E1,8.3E1,3E1,1.6E1,4.9E1,1.5E1,1.9E1,6.4E1,1.1E1,1.9E1,1E1,6E0],"tree_param":{"num_deleted":"0","num_feature":"105","num_nodes":"21","size_leaf_vector":"1"}},{"base_weights":[-6.314237E-4,3.8373286E-1,-5.466908E-2,1.2571956E-2,1.2591757E-3,-9.97169E-2,1.2986721E-2,-4.6973776E-2,-2.813763E-1,3.1444225E-1,-7.681528E-2,-3.458345E-1,-8.844948E-2,-0E0,1.3046462E-2,7.838511E-4,-5.0592828E-3,-1.0856003E-2,-3.7847369E-3,1.5310012E-4,-7.2133224E-3],"categories":[],"categories_nodes":[],"categories_segments":[],"categories_sizes":[],"default_left":[0,0,0,0,0,0,0,0,0,0,0,0,0,0,0,0,0,0,0,0,0],"id":2,"left_children":[1,3,5,-1,-1,7,-1,9,11,13,15,17,19,-1,-1,-1,-1,-1,-1,-1,-1],"loss_changes":[4.7236648E0,2.7441216E-1,4.4245133E0,0E0,0E0,1.7264855E0,0E0,1.5642447E0,4.358468E-1,4.2536616E-1,1.2948204E0,1.1202812E-2,1.9539544E-1,0E0,0E0,0E0,0E0,0E0,0E0,0E0,0E0],"parents":[2147483647,0,0,1,1,2,2,5,5,7,7,8,8,9,9,10,10,11,11,12,12],"right_children":[2,4,6,-1,-1,8,-1,10,12,14,16,18,20,-1,-1,-1,-1,-1,-1,-1,-1],"split_conditions":[-1.2562428E0,1.1575638E-1,1.6433371E0,1.2571956E-2,1.2591757E-3,6.7201984E-1,1.2986721E-2,-5.94571E-1,1.3229928E0,-8.845528E-1,-6.615198E-2,2.692001E0,-9.1192615E-1,-0E0,1.3046462E-2,7.838511E-4,-5.0592828E-3,-1.0856003E-2,-3.7847369E-3,1.5310012E-4,-7.2133224E-3],"split_indices":[100,101,101,0,0,101,0,73,101,26,17,5,5,0,0,0,0,0,0,0,0],"split_type":[0,0,0,0,0,0,0,0,0,0,0,0,0,0,0,0,0,0,0,0,0],"sum_hessian":[2.27E2,2.7E1,2E2,2.4E1,3E0,1.84E2,1.6E1,1.44E2,4E1,1E1,1.34E2,2.9E1,1.1E1,3E0,7E0,6.3E1,7.1E1,2.6E1,3E0,7E0,4E0],"tree_param":{"num_deleted":"0","num_feature":"105","num_nodes":"21","size_leaf_vector":"1"}},{"base_weights":[1.7946705E-2,3.6772493E-1,-3.2338675E-2,1.2274802E-2,1.5128998E-3,-7.470168E-2,1.2826257E-2,2.4593207E-1,-1.0302827E-1,-5.524196E-4,3.671116E-1,-0E0,-1.7281733E-1,1.107742E-3,-1.0629839E-3,1.2687243E-2,4.1622217E-3,8.134899E-3,-2.3399123E-3,2.932896E-3,-6.443222E-3],"categories":[],"categories_nodes":[],"categories_segments":[],"categories_sizes":[],"default_left":[0,0,0,0,0,0,0,0,0,0,0,0,0,0,0,0,0,0,0,0,0],"id":3,"left_children":[1,3,5,-1,-1,7,-1,9,11,13,15,17,19,-1,-1,-1,-1,-1,-1,-1,-1],"loss_changes":[4.3370805E0,3.4096956E-1,4.165786E0,0E0,0E0,1.8002919E0,0E0,5.147607E-1,1.3234777E0,9.0024555E-3,2.5325775E-2,1.6028475E0,1.2701395E0,0E0,0E0,0E0,0E0,0E0,0E0,0E0,0E0],"parents":[2147483647,0,0,1,1,2,2,5,5,7,7,8,8,9,9,10,10,11,11,12,12],"right_children":[2,4,6,-1,-1,8,-1,10,12,14,16,18,20,-1,-1,-1,-1,-1,-1,-1,-1],"split_conditions":[-1.2562428E0,1.1575638E-1,1.6433371E0,1.2274802E-2,1.5128998E-3,-6.472665E-1,1.2826257E-2,-1.4790446E-1,-2.985515E-1,-4.4330206E0,-3.2167748E-1,-1.0424503E0,-6.3702005E-1,1.107742E-3,-1.0629839E-3,1.2687243E-2,4.1622217E-3,8.134899E-3,-2.3399123E-3,2.932896E-3,-6.443222E-3],"split_indices":[100,101,101,0,0,76,0,90,19,2,17,10,56,0,0,0,0,0,0,0,0],"split_type":[0,0,0,0,0,0,0,0,0,0,0,0,0,0,0,0,0,0,0,0,0],"sum_hessian":[2.43E2,3E1,2.13E2,2.6E1,4E0,1.96E2,1.7E1,1.5E1,1.81E2,5E0,1E1,7.3E1,1.08E2,1E0,4E0,7E0,3E0,1.6E1,5.7E1,1.4E1,9.4E1],"tree_param":{"num_deleted":"0","num_feature":"105","num_nodes":"21","size_leaf_vector":"1"}},{"base_weights":[6.053593E-3,3.50562E-1,-4.9334593E-2,1.2155713E-2,1.796347E-3,-8.57066E-2,1.2132663E-2,-1.5848985E-2,-1.9670004E-1,-7.078847E-2,2.891181E-1,8.115609E-2,-2.4087492E-1,2.3826754E-4,-5.856111E-3,-6.6306763E-3,1.3396713E-2,9.182521E-3,-6.899227E-3,-7.998609E-3,1.459201E-3],"categories":[],"categories_nodes":[],"categories_segments":[],"categories_sizes":[],"default_left":[0,0,0,0,0,0,0,0,0,0,0,0,0,0,0,0,0,0,0,0,0],"id":4,"left_children":[1,3,5,-1,-1,7,-1,9,11,13,15,17,19,-1,-1,-1,-1,-1,-1,-1,-1],"loss_changes":[4.817842E0,4.8501682E-1,3.5676627E0,0E0,0E0,1.5341287E0,0E0,2.0929754E0,9.806385E-1,1.0683739E0,1.6472574E0,8.4780324E-1,5.34163E-1,0E0,0E0,0E0,0E0,0E0,0E0,0E0,0E0],"parents":[2147483647,0,0,1,1,2,2,5,5,7,7,8,8,9,9,10,10,11,11,12,12],"right_children":[2,4,6,-1,-1,8,-1,10,12,14,16,18,20,-1,-1,-1,-1,-1,-1,-1,-1],"split_conditions":[-1.2562428E0,1.1575638E-1,1.6433371E0,1.2155713E-2,1.796347E-3,2.6053017E-1,1.2132663E-2,1.141878E0,-5.556959E-1,4.4260243E-1,-8.774211E-1,-1.7953506E-1,4.4652113E-1,2.3826754E-4,-5.856111E-3,-6.6306763E-3,1.3396713E-2,9.182521E-3,-6.899227E-3,-7.998609E-3,1.459201E-3],"split_indices":[100,101,101,0,0,22,0,102,73,101,37,93,82,0,0,0,0,0,0,0,0],"split_type":[0,0,0,0,0,0,0,0,0,0,0,0,0,0,0,0,0,0,0,0,0],"sum_hessian":[2.49E2,3.4E1,2.15E2,2.8E1,6E0,2E2,1.5E1,1.24E2,7.6E1,1.06E2,1.8E1,1E1,6.6E1,6.5E1,4.1E1,4E0,1.4E1,6E0,4E0,6.1E1,5E0],"tree_param":{"num_deleted":"0","num_feature":"105","num_nodes":"21","size_leaf_vector":"1"}},{"base_weights":[-3.524556E-3,3.5487008E-1,-5.5619616E-2,1.1803852E-2,1.4334777E-3,-9.066082E-2,1.1848564E-2,-1.0733765E-1,3.868684E-1,-6.255199E-2,-2.506236E-1,1.3559553E-3,1.2588408E-2,-1.1394907E-3,-1.337351E-2,-9.902683E-3,-2.5527112E-3],"categories":[],"categories_nodes":[],"categories_segments":[],"categories_sizes":[],"default_left":[0,0,0,0,0,0,0,0,0,0,0,0,0,0,0,0,0],"id":5,"left_children":[1,3,5,-1,-1,7,-1,9,11,13,15,-1,-1,-1,-1,-1,-1],"loss_changes":[4.713472E0,3.1630802E-1,3.5104413E0,0E0,0E0,1.6620533E0,0E0,1.2428539E0,1.2869239E-2,1.3941097E0,5.4864407E-1,0E0,0E0,0E0,0E0,0E0,0E0],"parents":[2147483647,0,0,1,1,2,2,5,5,7,7,8,8,9,9,10,10],"right_children":[2,4,6,-1,-1,8,-1,10,12,14,16,-1,-1,-1,-1,-1,-1],"split_conditions":[-1.2562428E0,1.1575638E-1,1.6433371E0,1.1803852E-2,1.4334777E-3,3.5130236E0,1.1848564E-2,6.7201984E-1,-3.2006886E0,1.5867357E0,1.3229928E0,1.3559553E-3,1.2588408E-2,-1.1394907E-3,-1.337351E-2,-9.902683E-3,-2.5527112E-3],"split_indices":[100,101,101,0,0,6,0,101,1,100,101,0,0,0,0,0,0],"split_type":[0,0,0,0,0,0,0,0,0,0,0,0,0,0,0,0,0],"sum_hessian":[2.52E2,3.1E1,2.21E2,2.7E1,4E0,2.06E2,1.5E1,2E2,6E0,1.54E2,4.6E1,1E0,5E0,1.46E2,8E0,3E1,1.6E1],"tree_param":{"num_deleted":"0","num_feature":"105","num_nodes":"17","size_leaf_vector":"1"}},{"base_weights":[5.8239247E-3,3.2746032E-1,-3.661247E-2,1.1416193E-2,1.5823687E-3,-6.8613544E-2,1.1319272E-2,-1.9490162E-2,-2.4062255E-1,5.0082706E-2,-1.8107271E-1,-3.1783333E-1,-8.4214754E-2,-1.2878297E-3,6.166838E-3,-6.321803E-3,4.9617095E-3,-1.0037152E-2,-3.2627997E-3,8.467262E-4,-7.4129063E-3],"categories":[],"categories_nodes":[],"categories_segments":[],"categories_sizes":[],"default_left":[0,0,0,0,0,0,0,0,0,0,0,0,0,0,0,0,0,0,0,0,0],"id":6,"left_children":[1,3,5,-1,-1,7,-1,9,11,13,15,17,19,-1,-1,-1,-1,-1,-1,-1,-1],"loss_changes":[3.275908E0,3.448875E-1,2.7766652E0,0E0,0E0,1.625433E0,0E0,1.7533988E0,4.523127E-1,1.5868884E0,5.2226555E-1,1.7266273E-2,3.2189012E-1,0E0,0E0,0E0,0E0,0E0,0E0,0E0,0E0],"parents":[2147483647,0,0,1,1,2,2,5,5,7,7,8,8,9,9,10,10,11,11,12,12],"right_children":[2,4,6,-1,-1,8,-1,10,12,14,16,18,20,-1,-1,-1,-1,-1,-1,-1,-1],"split_conditions":[-1.2562428E0,1.1575638E-1,1.6433371E0,1.1416193E-2,1.5823687E-3,6.7201984E-1,1.1319272E-2,4.378517E-1,1.1280473E0,-8.790265E-2,1.48916E0,1.3592441E0,6.6072345E-2,-1.2878297E-3,6.166838E-3,-6.321803E-3,4.9617095E-3,-1.0037152E-2,-3.2627997E-3,8.467262E-4,-7.4129063E-3],"split_indices":[100,101,101,0,0,101,0,19,101,101,26,100,100,0,0,0,0,0,0,0,0],"split_type":[0,0,0,0,0,0,0,0,0,0,0,0,0,0,0,0,0,0,0,0,0],"sum_hessian":[2.36E2,2.7E1,2.09E2,2.2E1,5E0,1.95E2,1.4E1,1.53E2,4.2E1,1.07E2,4.6E1,2.7E1,1.5E1,6.7E1,4E1,4.3E1,3E0,2.4E1,3E0,9E0,6E0],"tree_param":{"num_deleted":"0","num_feature":"105","num_nodes":"21","size_leaf_vector":"1"}},{"base_weights":[4.095277E-3,3.265832E-1,-4.669297E-2,1.106407E-2,1.5428091E-3,-8.115918E-2,1.1359465E-2,-1.0809966E-1,2.2747874E-1,6.863091E-2,-1.4783967E-1,4.030921E-1,-4.160872E-2,6.5698186E-3,-1.6901878E-3,-4.8066685E-3,6.7733303E-3,1.3448757E-2,3.4458544E-3,5.503197E-4,-7.5198743E-3],"categories":[],"categories_nodes":[],"categories_segments":[],"categories_sizes":[],"default_left":[0,0,0,0,0,0,0,0,0,0,0,0,0,0,0,0,0,0,0,0,0],"id":7,"left_children":[1,3,5,-1,-1,7,-1,9,11,13,15,17,19,-1,-1,-1,-1,-1,-1,-1,-1],"loss_changes":[4.0887523E0,3.3398366E-1,3.138205E0,0E0,0E0,1.667308E0,0E0,1.3103497E0,8.090062E-1,6.674956E-1,7.282002E-1,2.247262E-2,1.15563385E-1,0E0,0E0,0E0,0E0,0E0,0E0,0E0,0E0],"parents":[2147483647,0,0,1,1,2,2,5,5,7,7,8,8,9,9,10,10,11,11,12,12],"right_children":[2,4,6,-1,-1,8,-1,10,12,14,16,18,20,-1,-1,-1,-1,-1,-1,-1,-1],"split_conditions":[-1.2562428E0,1.1575638E-1,1.6433371E0,1.106407E-2,1.5428091E-3,2.3639019E0,1.1359465E-2,-5.5836743E-1,-7.5920886E-1,-1.5284604E-2,2.5288248E0,1.159656E0,1.6751041E0,6.5698186E-3,-1.6901878E-3,-4.8066685E-3,6.7733303E-3,1.3448757E-2,3.4458544E-3,5.503197E-4,-7.5198743E-3],"split_indices":[100,101,101,0,0,6,0,39,9,97,102,23,3,0,0,0,0,0,0,0,0],"split_type":[0,0,0,0,0,0,0,0,0,0,0,0,0,0,0,0,0,0,0,0,0],"sum_hessian":[2.46E2,3.3E1,2.13E2,2.8E1,5E0,1.98E2,1.5E1,1.83E2,1.5E1,3.3E1,1.5E2,9E0,6E0,1.5E1,1.8E1,1.46E2,4E0,7E0,2E0,5E0,1E0],"tree_param":{"num_deleted":"0","num_feature":"105","num_nodes":"21","size_leaf_vector":"1"}},{"base_weights":[3.0385638E-3,3.0668473E-1,-3.907557E-2,1.0559633E-2,1.5042389E-3,-7.4333034E-2,1.1039593E-2,5.9312157E-2,-1.2948969E-1,1.514764E-1,-2.0832375E-1,-1.4563102E-1,9.560421E-3,1.9826973E-3,1.0959985E-2,-1.3571726E-4,-7.5169015E-3,3.479925E-3,-5.105576E-3],"categories":[],"categories_nodes":[],"categories_segments":[],"categories_sizes":[],"default_left":[0,0,0,0,0,0,0,0,0,0,0,0,0,0,0,0,0,0,0],"id":8,"left_children":[1,3,5,-1,-1,7,-1,9,11,13,15,17,-1,-1,-1,-1,-1,-1,-1],"loss_changes":[3.1461792E0,2.908039E-1,3.0693107E0,0E0,0E0,1.4742393E0,0E0,1.456526E0,1.0491083E0,7.3617256E-1,1.0248417E-1,9.05282E-1,0E0,0E0,0E0,0E0,0E0,0E0,0E0],"parents":[2147483647,0,0,1,1,2,2,5,5,7,7,8,8,9,9,10,10,11,11],"right_children":[2,4,6,-1,-1,8,-1,10,12,14,16,18,-1,-1,-1,-1,-1,-1,-1],"split_conditions":[-1.1588452E0,1.1575638E-1,1.6433371E0,1.0559633E-2,1.5042389E-3,-4.0703633E-1,1.1039593E-2,4.0577787E-1,3.5130236E0,1.3727098E0,-1.7419086E0,-5.556959E-1,9.560421E-3,1.9826973E-3,1.0959985E-2,-1.3571726E-4,-7.5169015E-3,3.479925E-3,-5.105576E-3],"split_indices":[103,101,101,0,0,36,0,19,6,103,7,73,0,0,0,0,0,0,0],"split_type":[0,0,0,0,0,0,0,0,0,0,0,0,0,0,0,0,0,0,0],"sum_hessian":[2.42E2,2.9E1,2.13E2,2.4E1,5E0,1.97E2,1.6E1,5.7E1,1.4E2,4.3E1,1.4E1,1.36E2,4E0,3.2E1,1.1E1,3E0,1.1E1,1.1E1,1.25E2],"tree_param":{"num_deleted":"0","num_feature":"105","num_nodes":"19","size_leaf_vector":"1"}},{"base_weights":[-1.148659E-2,3.0320853E-1,-5.8517873E-2,1.0343718E-2,1.4666343E-3,-9.366166E-2,1.0574948E-2,-5.371579E-2,-2.2783707E-1,4.6318788E-2,-1.5057763E-1,-2.883985E-1,-8.082093E-2,3.1756933E-3,-9.343187E-3,2.0769867E-3,-6.80005E-3,-1.1609499E-2,-6.777982E-3,1.2483507E-4,-6.7696287E-3],"categories":[],"categories_nodes":[],"categories_segments":[],"categories_sizes":[],"default_left":[0,0,0,0,0,0,0,0,0,0,0,0,0,0,0,0,0,0,0,0,0],"id":9,"left_children":[1,3,5,-1,-1,7,-1,9,11,13,15,17,19,-1,-1,-1,-1,-1,-1,-1,-1],"loss_changes":[3.6490016E0,2.8218174E-1,3.1271791E0,0E0,0E0,1.0315567E0,0E0,1.5289675E0,3.4042716E-1,1.6525171E0,1.3694797E0,4.2179823E-2,2.0771194E-1,0E0,0E0,0E0,0E0,0E0,0E0,0E0,0E0],"parents":[2147483647,0,0,1,1,2,2,5,5,7,7,8,8,9,9,10,10,11,11,12,12],"right_children":[2,4,6,-1,-1,8,-1,10,12,14,16,18,20,-1,-1,-1,-1,-1,-1,-1,-1],"split_conditions":[-1.2562428E0,1.1575638E-1,1.6433371E0,1.0343718E-2,1.4666343E-3,6.7201984E-1,1.0574948E-2,5.2160315E-2,1.3229928E0,1.6293643E0,-3.903729E-1,8.599863E-1,6.6072345E-2,3.1756933E-3,-9.343187E-3,2.0769867E-3,-6.80005E-3,-1.1609499E-2,-6.777982E-3,1.2483507E-4,-6.7696287E-3],"split_indices":[100,101,101,0,0,101,0,9,101,102,63,100,100,0,0,0,0,0,0,0,0],"split_type":[0,0,0,0,0,0,0,0,0,0,0,0,0,0,0,0,0,0,0,0,0],"sum_hessian":[2.46E2,3.1E1,2.15E2,2.6E1,5E0,1.99E2,1.6E1,1.55E2,4.4E1,7.6E1,7.9E1,3E1,1.4E1,6.6E1,1E1,2E1,5.9E1,9E0,2.1E1,9E0,5E0],"tree_param":{"num_deleted":"0","num_feature":"105","num_nodes":"21","size_leaf_vector":"1"}},{"base_weights":[-0E0,3.041352E-1,-4.0192503E-2,1.2527698E-3,1.0171455E-2,-7.157466E-2,1.04293E-2,-3.1691518E-2,-2.1665895E-1,1.8565626E-1,-7.720148E-2,-2.8950968E-1,-6.0272627E-2,-4.2920304E-3,8.459355E-3,6.972055E-3,-3.4271986E-3,-1.1665771E-2,-6.7095715E-3,-3.889642E-3,4.6586203E-3],"categories":[],"categories_nodes":[],"categories_segments":[],"categories_sizes":[],"default_left":[0,0,0,0,0,0,0,0,0,0,0,0,0,0,0,0,0,0,0,0,0],"id":10,"left_children":[1,3,5,-1,-1,7,-1,9,11,13,15,17,19,-1,-1,-1,-1,-1,-1,-1,-1],"loss_changes":[3.1432664E0,2.2257328E-1,2.772292E0,0E0,0E0,1.1950192E0,0E0,1.6652575E0,4.6025085E-1,9.724725E-1,1.6201465E0,4.8065662E-2,2.5686657E-1,0E0,0E0,0E0,0E0,0E0,0E0,0E0,0E0],"parents":[2147483647,0,0,1,1,2,2,5,5,7,7,8,8,9,9,10,10,11,11,12,12],"right_children":[2,4,6,-1,-1,8,-1,10,12,14,16,18,20,-1,-1,-1,-1,-1,-1,-1,-1],"split_conditions":[-1.2562428E0,-1.2940536E0,1.754211E0,1.2527698E-3,1.0171455E-2,6.375858E-1,1.04293E-2,-1.1776989E0,1.3725687E0,-4.0010616E-1,-3.8153714E-1,8.599863E-1,-5.631794E-1,-4.2920304E-3,8.459355E-3,6.972055E-3,-3.4271986E-3,-1.1665771E-2,-6.7095715E-3,-3.889642E-3,4.6586203E-3],"split_indices":[100,102,104,0,0,104,0,9,104,65,95,100,102,0,0,0,0,0,0,0,0],"split_type":[0,0,0,0,0,0,0,0,0,0,0,0,0,0,0,0,0,0,0,0,0],"sum_hessian":[2.56E2,2.9E1,2.27E2,4E0,2.5E1,2.11E2,1.6E1,1.67E2,4.4E1,2.8E1,1.39E2,2.9E1,1.5E1,6E0,2.2E1,1.4E1,1.25E2,9E0,2E1,1.2E1,3E0],"tree_param":{"num_deleted":"0","num_feature":"105","num_nodes":"21","size_leaf_vector":"1"}},{"base_weights":[-1.0685835E-2,1.218838E-1,-7.924279E-2,-3.8613476E-2,1.9735736E-1,-1.7495327E-1,1.7428625E-2,-9.810717E-3,5.926084E-2,-6.118247E-3,2.1823546E-1,7.2821744E-2,-2.2637595E-1,7.035777E-2,-3.0226323E-1,-9.261358E-2,1.7656158E-1,2.8173435E-2,2.4917597E-1,1.1122376E-2,-7.342249E-2,-2.585115E-1,1.21398315E-1,1.89701E-1,-1.1418941E-1,-1.1839944E-2,-1.6894242E-2,-0E0,-8.066181E-3,5.4667186E-4,8.183163E-3,-1.1395187E-3,4.3609845E-3,3.983374E-3,9.544572E-3,-6.545144E-3,1.2831623E-3,-3.7435304E-5,-8.542073E-3,-0E0,6.1949897E-3,2.694894E-3,1.4709176E-2,-5.227166E-3,7.489641E-3,-7.480248E-4,-0E0],"categories":[],"categories_nodes":[],"categories_segments":[],"categories_sizes":[],"default_left":[0,0,0,0,0,0,0,0,0,0,0,0,0,0,0,0,0,0,0,0,0,0,0,0,0,0,0,0,0,0,0,0,0,0,0,0,0,0,0,0,0,0,0,0,0,0,0],"id":11,"left_children":[1,3,5,7,9,11,13,-1,15,-1,17,19,21,23,25,27,29,31,33,-1,35,37,39,41,43,-1,45,-1,-1,-1,-1,-1,-1,-1,-1,-1,-1,-1,-1,-1,-1,-1,-1,-1,-1,-1,-1],"loss_changes":[2.1412084E0,9.9255896E-1,1.4621868E0,7.8008324E-1,5.0674653E-1,1.0383997E0,1.3179152E0,0E0,3.8104644E-1,0E0,2.7691746E-1,6.6692907E-1,7.8270483E-1,1.5268762E0,2.4223053E-1,1.3968211E-1,1.4873672E-1,8.603829E-2,2.7395153E-1,0E0,1.9506206E-1,3.82586E-1,8.214315E-2,1.1588567E0,6.258714E-1,0E0,7.2347536E-4,0E0,0E0,0E0,0E0,0E0,0E0,0E0,0E0,0E0,0E0,0E0,0E0,0E0,0E0,0E0,0E0,0E0,0E0,0E0,0E0],"parents":[2147483647,0,0,1,1,2,2,3,3,4,4,5,5,6,6,8,8,10,10,11,11,12,12,13,13,14,14,15,15,16,16,17,17,18,18,20,20,21,21,22,22,23,23,24,24,26,26],"right_children":[2,4,6,8,10,12,14,-1,16,-1,18,20,22,24,26,28,30,32,34,-1,36,38,40,42,44,-1,46,-1,-1,-1,-1,-1,-1,-1,-1,-1,-1,-1,-1,-1,-1,-1,-1,-1,-1,-1,-1],"split_conditions":[-5.9084994E-1,-5.991879E-1,2.4951156E-2,-3.8875002E-1,-1.4348986E0,-2.788716E-1,5.633771E-1,-9.810717E-3,-2.2660143E0,-6.118247E-3,-5.763501E-1,-2.5715354E-1,1.3278979E0,1.4606409E-1,3.7916332E-1,1.10180534E-1,2.3771625E-2,-6.075519E-1,-1.9471991E-1,1.1122376E-2,-3.81899E-1,-1.9078617E0,-2.7972207E0,6.779047E-2,1.5808086E0,-1.1839944E-2,-2.3082783E0,-0E0,-8.066181E-3,5.4667186E-4,8.183163E-3,-1.1395187E-3,4.3609845E-3,3.983374E-3,9.544572E-3,-6.545144E-3,1.2831623E-3,-3.7435304E-5,-8.542073E-3,-0E0,6.1949897E-3,2.694894E-3,1.4709176E-2,-5.227166E-3,7.489641E-3,-7.480248E-4,-0E0],"split_indices":[102,15,11,52,23,96,29,0,2,0,52,34,21,101,41,95,28,11,40,0,12,5,1,101,101,0,0,0,0,0,0,0,0,0,0,0,0,0,0,0,0,0,0,0,0,0,0],"split_type":[0,0,0,0,0,0,0,0,0,0,0,0,0,0,0,0,0,0,0,0,0,0,0,0,0,0,0,0,0,0,0,0,0,0,0,0,0,0,0,0,0,0,0,0,0,0,0],"sum_hessian":[2.34E2,7.9E1,1.55E2,2.5E1,5.4E1,7.8E1,7.7E1,6E0,1.9E1,2E0,5.2E1,1.3E1,6.5E1,6.7E1,1E1,8E0,1.1E1,8E0,4.4E1,4E0,9E0,6E1,5E0,4.1E1,2.6E1,7E0,3E0,6E0,2E0,5E0,6E0,5E0,3E0,1.8E1,2.6E1,4E0,5E0,6E0,5.4E1,2E0,3E0,3.2E1,9E0,2.3E1,3E0,2E0,1E0],"tree_param":{"num_deleted":"0","num_feature":"105","num_nodes":"47","size_leaf_vector":"1"}},{"base_weights":[2.403692E-3,2.7968863E-1,-3.7682332E-2,9.573652E-3,1.3659102E-3,-6.9898054E-2,9.902407E-3,-1.7040614E-2,-1.8225057E-1,3.8728356E-2,-2.1685629E-1,7.097591E-3,-2.0182158E-1,4.4475943E-3,-2.278106E-3,-0E0,-7.617162E-3,-3.6312689E-3,-9.413412E-3],"categories":[],"categories_nodes":[],"categories_segments":[],"categories_sizes":[],"default_left":[0,0,0,0,0,0,0,0,0,0,0,0,0,0,0,0,0,0,0],"id":12,"left_children":[1,3,5,-1,-1,7,-1,9,11,13,15,-1,17,-1,-1,-1,-1,-1,-1],"loss_changes":[2.7246304E0,2.3524642E-1,2.5087738E0,0E0,0E0,1.1409439E0,0E0,1.5305856E0,5.524895E-1,1.34971E0,2.653674E-1,0E0,4.611745E-1,0E0,0E0,0E0,0E0,0E0,0E0],"parents":[2147483647,0,0,1,1,2,2,5,5,7,7,8,8,9,9,10,10,12,12],"right_children":[2,4,6,-1,-1,8,-1,10,12,14,16,-1,18,-1,-1,-1,-1,-1,-1],"split_conditions":[-1.2562428E0,1.1575638E-1,1.6433371E0,9.573652E-3,1.3659102E-3,4.378517E-1,9.902407E-3,6.7201984E-1,-9.191091E-1,-1.2379613E-2,-2.8856392E0,7.097591E-3,1.6008349E-1,4.4475943E-3,-2.278106E-3,-0E0,-7.617162E-3,-3.6312689E-3,-9.413412E-3],"split_indices":[100,101,101,0,0,19,0,101,95,87,5,0,6,0,0,0,0,0,0],"split_type":[0,0,0,0,0,0,0,0,0,0,0,0,0,0,0,0,0,0,0],"sum_hessian":[2.41E2,3E1,2.11E2,2.5E1,5E0,1.95E2,1.6E1,1.34E2,6.1E1,1.05E2,2.9E1,2E0,5.9E1,5.4E1,5.1E1,4E0,2.5E1,3.6E1,2.3E1],"tree_param":{"num_deleted":"0","num_feature":"105","num_nodes":"19","size_leaf_vector":"1"}},{"base_weights":[2.614781E-2,2.865716E-1,-1.647625E-2,1.153915E-3,9.451115E-3,-4.688136E-2,9.552972E-3,9.431698E-3,-1.5945756E-1,-4.271133E-2,2.6478302E-1,1.07069686E-1,-1.9582178E-1,5.22928E-4,-6.4333337E-3,1.484466E-2,-1.5223778E-3,9.506179E-3,-1.865598E-3,-6.6377316E-3,5.145571E-3],"categories":[],"categories_nodes":[],"categories_segments":[],"categories_sizes":[],"default_left":[0,0,0,0,0,0,0,0,0,0,0,0,0,0,0,0,0,0,0,0,0],"id":13,"left_children":[1,3,5,-1,-1,7,-1,9,11,13,15,17,19,-1,-1,-1,-1,-1,-1,-1,-1],"loss_changes":[2.6847076E0,1.9265819E-1,2.0854578E0,0E0,0E0,1.2210135E0,0E0,1.7244949E0,6.5013325E-1,1.1182517E0,1.6663648E0,3.2925758E-1,5.755124E-1,0E0,0E0,0E0,0E0,0E0,0E0,0E0,0E0],"parents":[2147483647,0,0,1,1,2,2,5,5,7,7,8,8,9,9,10,10,11,11,12,12],"right_children":[2,4,6,-1,-1,8,-1,10,12,14,16,18,20,-1,-1,-1,-1,-1,-1,-1,-1],"split_conditions":[-1.2562428E0,-1.2940536E0,1.754211E0,1.153915E-3,9.451115E-3,4.378517E-1,9.552972E-3,1.3942204E0,-4.6375942E-1,7.0014876E-1,1.4117671E0,-1.7408844E0,6.4528215E-1,5.22928E-4,-6.4333337E-3,1.484466E-2,-1.5223778E-3,9.506179E-3,-1.865598E-3,-6.6377316E-3,5.145571E-3],"split_indices":[100,102,104,0,0,19,0,100,84,100,100,2,69,0,0,0,0,0,0,0,0],"split_type":[0,0,0,0,0,0,0,0,0,0,0,0,0,0,0,0,0,0,0,0,0],"sum_hessian":[2.38E2,3.3E1,2.05E2,4E0,2.9E1,1.89E2,1.6E1,1.26E2,6.3E1,1.05E2,2.1E1,7E0,5.6E1,7.8E1,2.7E1,1.2E1,9E0,3E0,4E0,5.3E1,3E0],"tree_param":{"num_deleted":"0","num_feature":"105","num_nodes":"21","size_leaf_vector":"1"}},{"base_weights":[4.429936E-3,2.6620921E-1,-3.1608667E-2,9.199356E-3,1.3029141E-3,-6.2201217E-2,9.296524E-3,-8.4032826E-2,1.9434728E-1,8.1098616E-2,-1.1606468E-1,-6.663449E-2,3.4150162E-1,-3.616174E-3,8.5198935E-3,-2.538765E-3,-1.1034861E-2,-0E0,-7.022627E-3,3.5648446E-3,1.2170158E-2],"categories":[],"categories_nodes":[],"categories_segments":[],"categories_sizes":[],"default_left":[0,0,0,0,0,0,0,0,0,0,0,0,0,0,0,0,0,0,0,0,0],"id":14,"left_children":[1,3,5,-1,-1,7,-1,9,11,13,15,17,19,-1,-1,-1,-1,-1,-1,-1,-1],"loss_changes":[2.2583363E0,2.129147E-1,2.1675112E0,0E0,0E0,1.0806665E0,0E0,9.544343E-1,6.263115E-1,1.2370224E0,1.1109152E0,8.295305E-2,4.2235017E-2,0E0,0E0,0E0,0E0,0E0,0E0,0E0,0E0],"parents":[2147483647,0,0,1,1,2,2,5,5,7,7,8,8,9,9,10,10,11,11,12,12],"right_children":[2,4,6,-1,-1,8,-1,10,12,14,16,18,20,-1,-1,-1,-1,-1,-1,-1,-1],"split_conditions":[-1.2562428E0,1.1575638E-1,1.6433371E0,9.199356E-3,1.3029141E-3,2.3639019E0,9.296524E-3,-1.3928998E0,-2.3759592E-1,-1.5356797E0,1.6293643E0,1.6751041E0,3.8557106E-1,-3.616174E-3,8.5198935E-3,-2.538765E-3,-1.1034861E-2,-0E0,-7.022627E-3,3.5648446E-3,1.2170158E-2],"split_indices":[100,101,101,0,0,6,0,101,20,101,102,3,5,0,0,0,0,0,0,0,0],"split_type":[0,0,0,0,0,0,0,0,0,0,0,0,0,0,0,0,0,0,0,0,0],"sum_hessian":[2.35E2,2.8E1,2.07E2,2.3E1,5E0,1.91E2,1.6E1,1.77E2,1.4E1,2.8E1,1.49E2,5E0,9E0,1.4E1,1.4E1,1.34E2,1.5E1,4E0,1E0,3E0,6E0],"tree_param":{"num_deleted":"0","num_feature":"105","num_nodes":"21","size_leaf_vector":"1"}},{"base_weights":[-1.7551934E-2,2.5332555E-1,-5.2940164E-2,8.552997E-3,1.0949493E-3,-7.995788E-2,8.854586E-3,-2.144806E-2,-1.8043351E-1,4.6885535E-2,-1.5998554E-1,-2.053479E-2,-2.4518028E-1,-6.1183274E-3,3.7464323E-3,-5.752848E-3,-0E0,2.0962532E-3,-5.999595E-3,-2.8092293E-3,-9.323927E-3],"categories":[],"categories_nodes":[],"categories_segments":[],"categories_sizes":[],"default_left":[0,0,0,0,0,0,0,0,0,0,0,0,0,0,0,0,0,0,0,0,0],"id":15,"left_children":[1,3,5,-1,-1,7,-1,9,11,13,15,17,19,-1,-1,-1,-1,-1,-1,-1,-1],"loss_changes":[2.246053E0,1.4345229E-1,1.9676585E0,0E0,0E0,1.1223104E0,0E0,1.2021564E0,7.034514E-1,1.6609054E0,2.1203232E-1,3.8391787E-1,4.2763257E-1,0E0,0E0,0E0,0E0,0E0,0E0,0E0,0E0],"parents":[2147483647,0,0,1,1,2,2,5,5,7,7,8,8,9,9,10,10,11,11,12,12],"right_children":[2,4,6,-1,-1,8,-1,10,12,14,16,18,20,-1,-1,-1,-1,-1,-1,-1,-1],"split_conditions":[-1.2562428E0,1.1575638E-1,1.6433371E0,8.552997E-3,1.0949493E-3,3.0811337E-1,8.854586E-3,4.4260243E-1,-4.9838504E-1,-4.4860658E-1,4.6575344E-1,3.786555E-1,-2.6605362E-1,-6.1183274E-3,3.7464323E-3,-5.752848E-3,-0E0,2.0962532E-3,-5.999595E-3,-2.8092293E-3,-9.323927E-3],"split_indices":[100,101,101,0,0,22,0,101,100,44,39,62,57,0,0,0,0,0,0,0,0],"split_type":[0,0,0,0,0,0,0,0,0,0,0,0,0,0,0,0,0,0,0,0,0],"sum_hessian":[2.34E2,2.6E1,2.08E2,2.2E1,4E0,1.94E2,1.4E1,1.24E2,7E1,8.3E1,4.1E1,2.1E1,4.9E1,1.9E1,6.4E1,3.4E1,7E0,1.4E1,7E0,1.6E1,3.3E1],"tree_param":{"num_deleted":"0","num_feature":"105","num_nodes":"21","size_leaf_vector":"1"}},{"base_weights":[-3.295698E-3,2.4926639E-1,-3.579969E-2,8.182559E-3,8.0722704E-4,-6.372538E-2,8.75416E-3,-0E0,-1.6658936E-1,9.264865E-2,-1.10536315E-1,5.9711043E-2,-2.0504516E-1,-2.7685E-3,5.19641E-3,1.1165172E-3,-5.4639494E-3,-5.176877E-3,6.9412896E-3,4.332597E-3,-6.797762E-3],"categories":[],"categories_nodes":[],"categories_segments":[],"categories_sizes":[],"default_left":[0,0,0,0,0,0,0,0,0,0,0,0,0,0,0,0,0,0,0,0,0],"id":16,"left_children":[1,3,5,-1,-1,7,-1,9,11,13,15,17,19,-1,-1,-1,-1,-1,-1,-1,-1],"loss_changes":[1.8757106E0,9.847295E-2,1.8712498E0,0E0,0E0,1.2543213E0,0E0,1.2177321E0,6.6206384E-1,9.9251604E-1,5.92507E-1,4.8441476E-1,5.1532507E-1,0E0,0E0,0E0,0E0,0E0,0E0,0E0,0E0],"parents":[2147483647,0,0,1,1,2,2,5,5,7,7,8,8,9,9,10,10,11,11,12,12],"right_children":[2,4,6,-1,-1,8,-1,10,12,14,16,18,20,-1,-1,-1,-1,-1,-1,-1,-1],"split_conditions":[-1.2562428E0,1.556862E0,1.6433371E0,8.182559E-3,8.0722704E-4,3.0811337E-1,8.75416E-3,8.088111E-2,-4.6236768E-1,-1.0213413E0,-2.919757E-1,-1.8475954E-1,-8.2604825E-1,-2.7685E-3,5.19641E-3,1.1165172E-3,-5.4639494E-3,-5.176877E-3,6.9412896E-3,4.332597E-3,-6.797762E-3],"split_indices":[100,13,101,0,0,22,0,30,73,4,58,66,54,0,0,0,0,0,0,0,0],"split_type":[0,0,0,0,0,0,0,0,0,0,0,0,0,0,0,0,0,0,0,0,0],"sum_hessian":[2.29E2,2.5E1,2.04E2,2.2E1,3E0,1.89E2,1.5E1,1.17E2,7.2E1,6.4E1,5.3E1,1E1,6.2E1,1.9E1,4.5E1,1.7E1,3.6E1,4E0,6E0,3E0,5.9E1],"tree_param":{"num_deleted":"0","num_feature":"105","num_nodes":"21","size_leaf_vector":"1"}},{"base_weights":[1.1019416E-2,2.2929342E-1,-1.8216953E-2,8.22015E-3,1.2518804E-3,-4.415813E-2,8.590333E-3,1.0384467E-2,-1.3789752E-1,-4.026057E-2,2.446626E-1,1.0177251E-1,-1.7153454E-1,3.2943212E-3,-3.4190337E-3,1.0945302E-2,-1.087086E-2,8.964948E-3,-2.8692328E-3,-9.6594024E-4,-6.7299427E-3],"categories":[],"categories_nodes":[],"categories_segments":[],"categories_sizes":[],"default_left":[0,0,0,0,0,0,0,0,0,0,0,0,0,0,0,0,0,0,0,0,0],"id":17,"left_children":[1,3,5,-1,-1,7,-1,9,11,13,15,17,19,-1,-1,-1,-1,-1,-1,-1,-1],"loss_changes":[1.5121833E0,1.9180858E-1,1.6159663E0,0E0,0E0,9.907261E-1,0E0,1.4659585E0,5.968206E-1,1.1190643E0,1.7374135E0,3.9901894E-1,4.3058562E-1,0E0,0E0,0E0,0E0,0E0,0E0,0E0,0E0],"parents":[2147483647,0,0,1,1,2,2,5,5,7,7,8,8,9,9,10,10,11,11,12,12],"right_children":[2,4,6,-1,-1,8,-1,10,12,14,16,18,20,-1,-1,-1,-1,-1,-1,-1,-1],"split_conditions":[-1.2562428E0,1.1575638E-1,1.6433371E0,8.22015E-3,1.2518804E-3,2.0060901E-1,8.590333E-3,1.2058498E0,-1.4926871E0,-3.130583E-1,9.308389E-1,-1.176318E0,-5.619018E-1,3.2943212E-3,-3.4190337E-3,1.0945302E-2,-1.087086E-2,8.964948E-3,-2.8692328E-3,-9.6594024E-4,-6.7299427E-3],"split_indices":[100,101,101,0,0,13,0,102,9,101,41,19,16,0,0,0,0,0,0,0,0],"split_type":[0,0,0,0,0,0,0,0,0,0,0,0,0,0,0,0,0,0,0,0,0],"sum_hessian":[2.32E2,2.7E1,2.05E2,2.1E1,6E0,1.9E2,1.5E1,1.2E2,7E1,9.9E1,2.1E1,8E0,6.2E1,3.2E1,6.7E1,1.8E1,3E0,4E0,4E0,1.8E1,4.4E1],"tree_param":{"num_deleted":"0","num_feature":"105","num_nodes":"21","size_leaf_vector":"1"}},{"base_weights":[2.4870657E-3,2.2916238E-1,-2.6715718E-2,7.947392E-3,1.1177338E-3,-5.3180043E-2,8.316149E-3,-2.1632624E-1,-2.100125E-2,1.7345935E-2,-2.9910636E-1,2.1107372E-2,-1.7222363E-1,6.8736747E-3,-3.3018829E-3,-0E0,-9.70332E-3,2.776634E-3,-3.1928068E-3,-0E0,-6.6511757E-3],"categories":[],"categories_nodes":[],"categories_segments":[],"categories_sizes":[],"default_left":[0,0,0,0,0,0,0,0,0,0,0,0,0,0,0,0,0,0,0,0,0],"id":18,"left_children":[1,3,5,-1,-1,7,-1,9,11,13,15,17,19,-1,-1,-1,-1,-1,-1,-1,-1],"loss_changes":[1.6216786E0,1.5201283E-1,1.713553E0,0E0,0E0,1.011194E0,0E0,6.5235364E-1,1.0821638E0,2.799634E-1,1.544013E-1,1.2021289E0,3.279947E-1,0E0,0E0,0E0,0E0,0E0,0E0,0E0,0E0],"parents":[2147483647,0,0,1,1,2,2,5,5,7,7,8,8,9,9,10,10,11,11,12,12],"right_children":[2,4,6,-1,-1,8,-1,10,12,14,16,18,20,-1,-1,-1,-1,-1,-1,-1,-1],"split_conditions":[-1.2562428E0,5.2605744E-2,1.754211E0,7.947392E-3,1.1177338E-3,-4.529698E-1,8.316149E-3,-1.385799E0,6.375858E-1,4.899326E-2,-8.5934055E-1,1.9429053E-1,-4.6344858E-1,6.8736747E-3,-3.3018829E-3,-0E0,-9.70332E-3,2.776634E-3,-3.1928068E-3,-0E0,-6.6511757E-3],"split_indices":[100,104,104,0,0,79,0,9,104,10,65,13,95,0,0,0,0,0,0,0,0],"split_type":[0,0,0,0,0,0,0,0,0,0,0,0,0,0,0,0,0,0,0,0,0],"sum_hessian":[2.4E2,2.7E1,2.13E2,2.2E1,5E0,1.97E2,1.6E1,3.1E1,1.66E2,8E0,2.3E1,1.3E2,3.6E1,3E0,5E0,2E0,2.1E1,8.4E1,4.6E1,8E0,2.8E1],"tree_param":{"num_deleted":"0","num_feature":"105","num_nodes":"21","size_leaf_vector":"1"}},{"base_weights":[5.1578116E-3,2.402908E-1,-2.6410332E-2,7.816032E-3,7.0903945E-4,-5.457863E-2,8.286685E-3,1.484943E-1,-8.4359124E-2,2.6904592E-1,-2.0302834E-2,-1.05515555E-1,1.7482464E-1,-0E0,1.0280026E-2,-5.4573882E-3,2.5124294E-3,2.8985714E-5,-4.4032675E-3,9.367785E-3,-2.6256917E-3],"categories":[],"categories_nodes":[],"categories_segments":[],"categories_sizes":[],"default_left":[0,0,0,0,0,0,0,0,0,0,0,0,0,0,0,0,0,0,0,0,0],"id":19,"left_children":[1,3,5,-1,-1,7,-1,9,11,13,15,17,19,-1,-1,-1,-1,-1,-1,-1,-1],"loss_changes":[1.8166077E0,9.261668E-2,1.8086641E0,0E0,0E0,1.1914452E0,0E0,5.390558E-1,9.546615E-1,3.2326722E-1,2.10023E-1,7.1767306E-1,5.185279E-1,0E0,0E0,0E0,0E0,0E0,0E0,0E0,0E0],"parents":[2147483647,0,0,1,1,2,2,5,5,7,7,8,8,9,9,10,10,11,11,12,12],"right_children":[2,4,6,-1,-1,8,-1,10,12,14,16,18,20,-1,-1,-1,-1,-1,-1,-1,-1],"split_conditions":[-1.2562428E0,1.1575638E-1,1.6433371E0,7.816032E-3,7.0903945E-4,-3.8153714E-1,8.286685E-3,1.7642704E-1,2.3639019E0,-6.4943206E-1,-3.116259E-1,-6.7557096E-1,3.7855056E-1,-0E0,1.0280026E-2,-5.4573882E-3,2.5124294E-3,2.8985714E-5,-4.4032675E-3,9.367785E-3,-2.6256917E-3],"split_indices":[100,101,101,0,0,95,0,46,6,72,59,101,96,0,0,0,0,0,0,0,0],"split_type":[0,0,0,0,0,0,0,0,0,0,0,0,0,0,0,0,0,0,0,0,0],"sum_hessian":[2.4E2,2.8E1,2.12E2,2.5E1,3E0,1.95E2,1.7E1,2.4E1,1.71E2,1.4E1,1E1,1.59E2,1.2E1,3E0,1.1E1,4E0,6E0,4.4E1,1.15E2,8E0,4E0],"tree_param":{"num_deleted":"0","num_feature":"105","num_nodes":"21","size_leaf_vector":"1"}},{"base_weights":[1.2241468E-2,2.2054943E-1,-2.1226056E-2,1.1727139E-3,7.63398E-3,-4.318281E-2,7.7688037E-3,-6.496815E-2,2.3596822E-1,-2.4781883E-2,-1.8454006E-1,3.354444E-1,3.075924E-2,1.0831065E-3,-4.6090884E-3,-1.726467E-4,-6.7889616E-3,4.511336E-4,1.08334655E-2,-0E0,1.8709035E-3],"categories":[],"categories_nodes":[],"categories_segments":[],"categories_sizes":[],"default_left":[0,0,0,0,0,0,0,0,0,0,0,0,0,0,0,0,0,0,0,0,0],"id":20,"left_children":[1,3,5,-1,-1,7,-1,9,11,13,15,17,19,-1,-1,-1,-1,-1,-1,-1,-1],"loss_changes":[1.7117294E0,1.6994882E-1,1.2753685E0,0E0,0E0,1.1841033E0,0E0,8.490315E-1,2.3884928E-1,1.0999593E0,3.1145465E-1,3.0981064E-2,9.880016E-3,0E0,0E0,0E0,0E0,0E0,0E0,0E0,0E0],"parents":[2147483647,0,0,1,1,2,2,5,5,7,7,8,8,9,9,10,10,11,11,12,12],"right_children":[2,4,6,-1,-1,8,-1,10,12,14,16,18,20,-1,-1,-1,-1,-1,-1,-1,-1],"split_conditions":[-1.1588452E0,-1.2940536E0,1.754211E0,1.1727139E-3,7.63398E-3,2.3639019E0,7.7688037E-3,6.375858E-1,-7.5920886E-1,3.8261902E-1,-4.6344858E-1,-6.909356E0,-1.8837793E0,1.0831065E-3,-4.6090884E-3,-1.726467E-4,-6.7889616E-3,4.511336E-4,1.08334655E-2,-0E0,1.8709035E-3],"split_indices":[103,102,104,0,0,6,0,104,9,19,95,0,0,0,0,0,0,0,0,0,0],"split_type":[0,0,0,0,0,0,0,0,0,0,0,0,0,0,0,0,0,0,0,0,0],"sum_hessian":[2.41E2,3.3E1,2.08E2,6E0,2.7E1,1.94E2,1.4E1,1.81E2,1.3E1,1.37E2,4.4E1,8E0,5E0,9.3E1,4.4E1,9E0,3.5E1,1E0,7E0,2E0,3E0],"tree_param":{"num_deleted":"0","num_feature":"105","num_nodes":"21","size_leaf_vector":"1"}},{"base_weights":[-4.0802103E-3,2.3106688E-1,-3.650758E-2,7.3227715E-3,2.3470544E-4,-6.181351E-2,7.84841E-3,1.2438775E-2,-1.2500955E-1,2.4569778E-1,-2.630867E-2,-1.4804164E-1,2.010124E-1,-4.1656292E-4,1.1211661E-2,2.1422363E-3,-4.0181954E-3,-2.7046443E-3,-9.030898E-3,8.509619E-3,-0E0],"categories":[],"categories_nodes":[],"categories_segments":[],"categories_sizes":[],"default_left":[0,0,0,0,0,0,0,0,0,0,0,0,0,0,0,0,0,0,0,0,0],"id":21,"left_children":[1,3,5,-1,-1,7,-1,9,11,13,15,17,19,-1,-1,-1,-1,-1,-1,-1,-1],"loss_changes":[1.7656517E0,5.4318786E-2,1.5503037E0,0E0,0E0,9.0906996E-1,0E0,8.237638E-1,8.0539346E-1,4.7320122E-1,8.151359E-1,8.0163074E-1,1.1945596E-1,0E0,0E0,0E0,0E0,0E0,0E0,0E0,0E0],"parents":[2147483647,0,0,1,1,2,2,5,5,7,7,8,8,9,9,10,10,11,11,12,12],"right_children":[2,4,6,-1,-1,8,-1,10,12,14,16,18,20,-1,-1,-1,-1,-1,-1,-1,-1],"split_conditions":[-1.2562428E0,1.1575638E-1,1.6433371E0,7.3227715E-3,2.3470544E-4,4.6923526E-2,7.84841E-3,-4.9689147E-1,7.1241677E-1,-2.5787663E-1,2.3075946E-2,4.233168E-1,7.42976E-1,-4.1656292E-4,1.1211661E-2,2.1422363E-3,-4.0181954E-3,-2.7046443E-3,-9.030898E-3,8.509619E-3,-0E0],"split_indices":[100,101,101,0,0,8,0,66,75,41,42,37,0,0,0,0,0,0,0,0,0],"split_type":[0,0,0,0,0,0,0,0,0,0,0,0,0,0,0,0,0,0,0,0,0],"sum_hessian":[2.32E2,2.7E1,2.05E2,2.5E1,2E0,1.9E2,1.5E1,8.7E1,1.03E2,1.2E1,7.5E1,9.7E1,6E0,4E0,8E0,3.9E1,3.6E1,7.2E1,2.5E1,4E0,2E0],"tree_param":{"num_deleted":"0","num_feature":"105","num_nodes":"21","size_leaf_vector":"1"}},{"base_weights":[-2.9464345E-3,2.1019834E-1,-3.0038854E-2,7.0771202E-3,8.9737854E-4,-5.400694E-2,7.4346983E-3,4.950129E-2,-9.7337775E-2,-2.4460666E-2,2.5605282E-1,-3.1013222E-2,-1.8579778E-1,-5.6986343E-3,1.0028948E-3,-0E0,1.0224032E-2,1.1405745E-3,-5.1462534E-3,-6.022234E-4,-8.158643E-3],"categories":[],"categories_nodes":[],"categories_segments":[],"categories_sizes":[],"default_left":[0,0,0,0,0,0,0,0,0,0,0,0,0,0,0,0,0,0,0,0,0],"id":22,"left_children":[1,3,5,-1,-1,7,-1,9,11,13,15,17,19,-1,-1,-1,-1,-1,-1,-1,-1],"loss_changes":[1.3857533E0,9.148967E-2,1.4325246E0,0E0,0E0,9.066217E-1,0E0,9.307629E-1,8.0568075E-1,4.4354543E-1,3.4473574E-1,8.250587E-1,8.220329E-1,0E0,0E0,0E0,0E0,0E0,0E0,0E0,0E0],"parents":[2147483647,0,0,1,1,2,2,5,5,7,7,8,8,9,9,10,10,11,11,12,12],"right_children":[2,4,6,-1,-1,8,-1,10,12,14,16,18,20,-1,-1,-1,-1,-1,-1,-1,-1],"split_conditions":[-1.1588452E0,1.1575638E-1,1.6433371E0,7.0771202E-3,8.9737854E-4,-4.0703633E-1,7.4346983E-3,3.141107E-1,3.213355E-2,-3.3602425E-1,-4.6711856E-1,1.1919874E0,-1.7564155E-1,-5.6986343E-3,1.0028948E-3,-0E0,1.0224032E-2,1.1405745E-3,-5.1462534E-3,-6.022234E-4,-8.158643E-3],"split_indices":[103,101,101,0,0,36,0,77,95,54,86,2,50,0,0,0,0,0,0,0,0],"split_type":[0,0,0,0,0,0,0,0,0,0,0,0,0,0,0,0,0,0,0,0,0],"sum_hessian":[2.41E2,2.6E1,2.15E2,2.2E1,4E0,1.99E2,1.6E1,5.8E1,1.41E2,4.3E1,1.5E1,8.2E1,5.9E1,1.1E1,3.2E1,4E0,1.1E1,5.5E1,2.7E1,2.1E1,3.8E1],"tree_param":{"num_deleted":"0","num_feature":"105","num_nodes":"21","size_leaf_vector":"1"}},{"base_weights":[-2.2722506E-3,2.0173077E-1,-3.0113988E-2,6.738186E-3,8.102239E-4,-5.0792884E-2,7.311082E-3,1.8332383E-1,-7.2455205E-2,3.1358054E-1,-3.3268694E-2,7.438202E-2,-1.0294769E-1,4.8753116E-4,9.950651E-3,-5.7876585E-3,2.648152E-4,-4.974437E-3,4.5680893E-3,-0E0,-4.623611E-3],"categories":[],"categories_nodes":[],"categories_segments":[],"categories_sizes":[],"default_left":[0,0,0,0,0,0,0,0,0,0,0,0,0,0,0,0,0,0,0,0,0],"id":23,"left_children":[1,3,5,-1,-1,7,-1,9,11,13,15,17,19,-1,-1,-1,-1,-1,-1,-1,-1],"loss_changes":[1.3747841E0,8.468175E-2,1.2161286E0,0E0,0E0,1.0266411E0,0E0,5.180783E-1,8.433165E-1,1.903975E-2,6.7157626E-2,6.225609E-1,8.275962E-1,0E0,0E0,0E0,0E0,0E0,0E0,0E0,0E0],"parents":[2147483647,0,0,1,1,2,2,5,5,7,7,8,8,9,9,10,10,11,11,12,12],"right_children":[2,4,6,-1,-1,8,-1,10,12,14,16,18,20,-1,-1,-1,-1,-1,-1,-1,-1],"split_conditions":[-1.1588452E0,1.1575638E-1,1.6433371E0,6.738186E-3,8.102239E-4,-6.472665E-1,7.311082E-3,4.5890223E-2,-4.06849E-1,-6.909356E0,-4.253876E0,-4.1414922E-1,-2.4988954E-1,4.8753116E-4,9.950651E-3,-5.7876585E-3,2.648152E-4,-4.974437E-3,4.5680893E-3,-0E0,-4.623611E-3],"split_indices":[103,101,101,0,0,76,0,30,74,0,1,92,50,0,0,0,0,0,0,0,0],"split_type":[0,0,0,0,0,0,0,0,0,0,0,0,0,0,0,0,0,0,0,0,0],"sum_hessian":[2.43E2,2.8E1,2.15E2,2.4E1,4E0,2.01E2,1.4E1,1.6E1,1.85E2,1E1,6E0,3.1E1,1.54E2,1E0,9E0,1E0,5E0,7E0,2.4E1,5.1E1,1.03E2],"tree_param":{"num_deleted":"0","num_feature":"105","num_nodes":"21","size_leaf_vector":"1"}},{"base_weights":[1.08865835E-2,1.9540009E-1,-1.4942799E-2,6.644498E-3,9.941882E-4,-3.7890118E-2,7.0973053E-3,-9.580938E-4,-1.7530045E-1,-2.8645658E-1,2.3450276E-2,-2.2862524E-1,-1.4603021E-2,-1.1720359E-2,-5.568475E-3,1.7464499E-3,-5.212723E-3,-9.341916E-3,-4.8759235E-3,-4.3071285E-3,9.968253E-4],"categories":[],"categories_nodes":[],"categories_segments":[],"categories_sizes":[],"default_left":[0,0,0,0,0,0,0,0,0,0,0,0,0,0,0,0,0,0,0,0,0],"id":24,"left_children":[1,3,5,-1,-1,7,-1,9,11,13,15,17,19,-1,-1,-1,-1,-1,-1,-1,-1],"loss_changes":[1.2029014E0,9.839833E-2,1.2473263E0,0E0,0E0,1.0022492E0,0E0,1.1479867E0,3.3224308E-1,6.4821243E-3,1.0132298E0,7.158947E-2,8.982812E-2,0E0,0E0,0E0,0E0,0E0,0E0,0E0,0E0],"parents":[2147483647,0,0,1,1,2,2,5,5,7,7,8,8,9,9,10,10,11,11,12,12],"right_children":[2,4,6,-1,-1,8,-1,10,12,14,16,18,20,-1,-1,-1,-1,-1,-1,-1,-1],"split_conditions":[-1.1588452E0,1.1575638E-1,1.6433371E0,6.644498E-3,9.941882E-4,6.7201984E-1,7.0973053E-3,-9.8126966E-1,1.3229928E0,-2.1917424E0,1.6293643E0,2.536871E-1,-2.7904558E-1,-1.1720359E-2,-5.568475E-3,1.7464499E-3,-5.212723E-3,-9.341916E-3,-4.8759235E-3,-4.3071285E-3,9.968253E-4],"split_indices":[103,101,101,0,0,101,0,103,101,2,102,102,13,0,0,0,0,0,0,0,0],"split_type":[0,0,0,0,0,0,0,0,0,0,0,0,0,0,0,0,0,0,0,0,0],"sum_hessian":[2.47E2,3E1,2.17E2,2.5E1,5E0,2E2,1.7E1,1.59E2,4.1E1,1.2E1,1.47E2,3E1,1.1E1,4E0,8E0,1.26E2,2.1E1,1.1E1,1.9E1,3E0,8E0],"tree_param":{"num_deleted":"0","num_feature":"105","num_nodes":"21","size_leaf_vector":"1"}},{"base_weights":[5.033209E-3,2.9564615E-2,-1.9794415E-1,1.1249867E-4,1.3610305E-2,1.0045171E-1,-3.4170073E-1,9.5775425E-2,-6.440619E-2,-1.1999302E-2,6.3843713E-3,-5.327589E-3,-1.2018773E-2,1.6298456E-1,1.5270748E-2,-8.65699E-2,6.4452584E-3,-0E0,-4.179053E-4,6.277804E-3,-1.9409228E-3,-2.672898E-3,6.0546827E-3,9.0626103E-4,-4.743634E-3],"categories":[],"categories_nodes":[],"categories_segments":[],"categories_sizes":[],"default_left":[0,0,0,0,0,0,0,0,0,0,0,0,0,0,0,0,0,0,0,0,0,0,0,0,0],"id":25,"left_children":[1,3,5,7,-1,9,11,13,15,17,-1,-1,-1,19,21,23,-1,-1,-1,-1,-1,-1,-1,-1,-1],"loss_changes":[1.2039683E0,2.6900997E0,1.1737549E0,1.2807469E0,0E0,1.3635056E-1,4.5101166E-2,4.3418032E-1,7.6704025E-1,5.628314E-5,0E0,0E0,0E0,5.021199E-1,8.080519E-1,9.784679E-1,0E0,0E0,0E0,0E0,0E0,0E0,0E0,0E0,0E0],"parents":[2147483647,0,0,1,1,2,2,3,3,5,5,6,6,7,7,8,8,9,9,13,13,14,14,15,15],"right_children":[2,4,6,8,-1,10,12,14,16,18,-1,-1,-1,20,22,24,-1,-1,-1,-1,-1,-1,-1,-1,-1],"split_conditions":[1.6293643E0,1.2058498E0,-1.3928998E0,-5.9084994E-1,1.3610305E-2,1.2294171E0,1.0029173E0,-9.399416E-1,1.5808086E0,-6.9490156E0,6.3843713E-3,-5.327589E-3,-1.2018773E-2,7.730023E-1,-5.8338684E-1,-3.130583E-1,6.4452584E-3,-0E0,-4.179053E-4,6.277804E-3,-1.9409228E-3,-2.672898E-3,6.0546827E-3,9.0626103E-4,-4.743634E-3],"split_indices":[102,102,101,102,0,2,100,100,101,0,0,0,0,26,100,101,0,0,0,0,0,0,0,0,0],"split_type":[0,0,0,0,0,0,0,0,0,0,0,0,0,0,0,0,0,0,0,0,0,0,0,0,0],"sum_hessian":[2.43E2,2.18E2,2.5E1,2.05E2,1.3E1,8E0,1.7E1,8.3E1,1.22E2,4E0,4E0,6E0,1.1E1,4.4E1,3.9E1,1.14E2,8E0,1E0,3E0,3.7E1,7E0,2.5E1,1.4E1,4.3E1,7.1E1],"tree_param":{"num_deleted":"0","num_feature":"105","num_nodes":"25","size_leaf_vector":"1"}},{"base_weights":[2.8641573E-3,1.5518326E-2,-1.0274224E-2,-1.8413825E-1,3.735699E-2,1.0964883E-1,-2.4155983E-1,-9.327474E-2,6.9211885E-2,4.3801735E-3,-0E0,-9.787327E-3,-2.7815548E-1,1.1587647E-1,-1.3653308E-1,1.1052415E-1,-2.4149565E-2,-3.394904E-4,-0E0,-1.4458303E-4,-8.681697E-3,4.6374523E-3,-0E0,1.6680745E-3,-5.020137E-3,2.2922573E-3,9.381627E-3,-2.0981568E-3,6.546258E-3],"categories":[],"categories_nodes":[],"categories_segments":[],"categories_sizes":[],"default_left":[0,0,0,0,0,0,0,0,0,0,0,0,0,0,0,0,0,0,0,0,0,0,0,0,0,0,0,0,0],"id":26,"left_children":[1,3,-1,5,7,9,11,13,15,-1,-1,17,19,21,23,25,27,-1,-1,-1,-1,-1,-1,-1,-1,-1,-1,-1,-1],"loss_changes":[9.9082184E-1,9.7761345E-1,0E0,4.108116E-1,8.5710776E-1,1.5861616E-2,1.2963867E-1,3.7978807E-1,6.515641E-1,0E0,0E0,1.0120275E-6,1.8316865E-2,2.5486067E-2,2.2171384E-1,7.373669E-1,5.6639844E-1,0E0,0E0,0E0,0E0,0E0,0E0,0E0,0E0,0E0,0E0,0E0,0E0],"parents":[2147483647,0,0,1,1,3,3,4,4,5,5,6,6,7,7,8,8,11,11,12,12,13,13,14,14,15,15,16,16],"right_children":[2,4,-1,6,8,10,12,14,16,-1,-1,18,20,22,24,26,28,-1,-1,-1,-1,-1,-1,-1,-1,-1,-1,-1,-1],"split_conditions":[1.5867357E0,-5.641854E-1,-1.0274224E-2,-5.55931E-1,-5.8296466E-1,-2.3587563E0,-4.5297027E-1,-9.660545E-1,4.730371E-1,4.3801735E-3,-0E0,-4.6812767E-1,-2.2533255E0,6.298437E-1,-7.498389E-1,1.2058498E0,8.976778E-1,-3.394904E-4,-0E0,-1.4458303E-4,-8.681697E-3,4.6374523E-3,-0E0,1.6680745E-3,-5.020137E-3,2.2922573E-3,9.381627E-3,-2.0981568E-3,6.546258E-3],"split_indices":[100,79,0,98,32,0,84,40,19,0,0,1,3,3,80,102,22,0,0,0,0,0,0,0,0,0,0,0,0],"split_type":[0,0,0,0,0,0,0,0,0,0,0,0,0,0,0,0,0,0,0,0,0,0,0,0,0,0,0,0,0],"sum_hessian":[2.32E2,2.25E2,7E0,2.1E1,2.04E2,3E0,1.8E1,3.9E1,1.65E2,2E0,1E0,3E0,1.5E1,6E0,3.3E1,1.15E2,5E1,2E0,1E0,1E0,1.4E1,4E0,2E0,4E0,2.9E1,1E2,1.5E1,4.3E1,7E0],"tree_param":{"num_deleted":"0","num_feature":"105","num_nodes":"29","size_leaf_vector":"1"}},{"base_weights":[2.664106E-3,1.9512576E-1,-2.4013055E-2,6.4873635E-3,6.6162884E-4,-4.7585607E-2,6.678032E-3,-2.0521903E-2,-1.8759523E-1,-3.9733816E-2,2.827633E-1,-2.706657E-1,-0E0,2.395206E-3,-2.4925016E-3,9.613312E-3,-0E0,-1.0267246E-2,-1.6233483E-3,-3.987833E-3,2.6410169E-3],"categories":[],"categories_nodes":[],"categories_segments":[],"categories_sizes":[],"default_left":[0,0,0,0,0,0,0,0,0,0,0,0,0,0,0,0,0,0,0,0,0],"id":27,"left_children":[1,3,5,-1,-1,7,-1,9,11,13,15,17,19,-1,-1,-1,-1,-1,-1,-1,-1],"loss_changes":[1.3053796E0,8.4712505E-2,1.2720225E0,0E0,0E0,7.407526E-1,0E0,9.832962E-1,4.8557544E-1,8.4668195E-1,1.2460697E-1,2.8284633E-1,1.4259872E-1,0E0,0E0,0E0,0E0,0E0,0E0,0E0,0E0],"parents":[2147483647,0,0,1,1,2,2,5,5,7,7,8,8,9,9,10,10,11,11,12,12],"right_children":[2,4,6,-1,-1,8,-1,10,12,14,16,18,20,-1,-1,-1,-1,-1,-1,-1,-1],"split_conditions":[-1.2562428E0,1.1575638E-1,1.6433371E0,6.4873635E-3,6.6162884E-4,1.3108945E0,6.678032E-3,5.6470364E-1,-1.3498291E-2,-7.0769465E-1,1.7473332E0,2.8242028E-1,-2.3927E-1,2.395206E-3,-2.4925016E-3,9.613312E-3,-0E0,-1.0267246E-2,-1.6233483E-3,-3.987833E-3,2.6410169E-3],"split_indices":[100,101,101,0,0,8,0,98,60,101,1,23,11,0,0,0,0,0,0,0,0],"split_type":[0,0,0,0,0,0,0,0,0,0,0,0,0,0,0,0,0,0,0,0,0],"sum_hessian":[2.49E2,3E1,2.19E2,2.6E1,4E0,2.01E2,1.8E1,1.7E2,3.1E1,1.61E2,9E0,2.1E1,1E1,4.2E1,1.19E2,8E0,1E0,1.5E1,6E0,4E0,6E0],"tree_param":{"num_deleted":"0","num_feature":"105","num_nodes":"21","size_leaf_vector":"1"}},{"base_weights":[-9.326643E-3,1.7931373E-1,-3.683805E-2,9.2374266E-4,6.3298396E-3,-5.767732E-2,6.3567143E-3,-1.9278225E-1,-2.7137635E-2,-2.6651272E-1,-5.600705E-2,-5.7976764E-2,1.3018622E-1,-2.982657E-3,-1.0432463E-2,2.0303516E-4,-7.1890866E-3,1.3516613E-3,-3.333137E-3,1.2757897E-2,-2.2369765E-3],"categories":[],"categories_nodes":[],"categories_segments":[],"categories_sizes":[],"default_left":[0,0,0,0,0,0,0,0,0,0,0,0,0,0,0,0,0,0,0,0,0],"id":28,"left_children":[1,3,5,-1,-1,7,-1,9,11,13,15,17,19,-1,-1,-1,-1,-1,-1,-1,-1],"loss_changes":[1.2275215E0,1.104843E-1,1.0801141E0,0E0,0E0,7.7323234E-1,0E0,3.0577898E-1,7.766037E-1,2.193327E-1,1.8629089E-1,7.505833E-1,1.6376386E0,0E0,0E0,0E0,0E0,0E0,0E0,0E0,0E0],"parents":[2147483647,0,0,1,1,2,2,5,5,7,7,8,8,9,9,10,10,11,11,12,12],"right_children":[2,4,6,-1,-1,8,-1,10,12,14,16,18,20,-1,-1,-1,-1,-1,-1,-1,-1],"split_conditions":[-1.1588452E0,-1.2940536E0,1.754211E0,9.2374266E-4,6.3298396E-3,-6.399593E-1,6.3567143E-3,1.733576E-1,1.4748012E0,-5.667348E-2,1.0977602E0,-1.3438033E-1,1.5924063E-1,-2.982657E-3,-1.0432463E-2,2.0303516E-4,-7.1890866E-3,1.3516613E-3,-3.333137E-3,1.2757897E-2,-2.2369765E-3],"split_indices":[103,102,104,0,0,33,0,67,103,53,22,74,2,0,0,0,0,0,0,0,0],"split_type":[0,0,0,0,0,0,0,0,0,0,0,0,0,0,0,0,0,0,0,0,0],"sum_hessian":[2.37E2,2.9E1,2.08E2,6E0,2.3E1,1.93E2,1.5E1,3.4E1,1.59E2,2.1E1,1.3E1,1.34E2,2.5E1,8E0,1.3E1,1E1,3E0,4.5E1,8.9E1,1E1,1.5E1],"tree_param":{"num_deleted":"0","num_feature":"105","num_nodes":"21","size_leaf_vector":"1"}},{"base_weights":[-6.648747E-4,1.7119274E-1,-2.7505044E-2,5.9326254E-3,8.99989E-4,-4.5422606E-2,6.2327185E-3,-1.0595493E-2,-1.6717854E-1,1.8989041E-1,-4.3442897E-2,-2.1347019E-1,-4.5591433E-2,-0E0,1.113219E-2,3.379293E-3,-2.6757792E-3,-8.903354E-3,-4.434351E-3,-4.756622E-3,1.3934944E-3],"categories":[],"categories_nodes":[],"categories_segments":[],"categories_sizes":[],"default_left":[0,0,0,0,0,0,0,0,0,0,0,0,0,0,0,0,0,0,0,0,0],"id":29,"left_children":[1,3,5,-1,-1,7,-1,9,11,13,15,17,19,-1,-1,-1,-1,-1,-1,-1,-1],"loss_changes":[1.1296737E0,9.5051706E-2,8.99499E-1,0E0,0E0,8.327732E-1,0E0,1.0341045E0,2.1201396E-1,7.213628E-1,9.8600453E-1,8.1240535E-2,1.6413637E-1,0E0,0E0,0E0,0E0,0E0,0E0,0E0,0E0],"parents":[2147483647,0,0,1,1,2,2,5,5,7,7,8,8,9,9,10,10,11,11,12,12],"right_children":[2,4,6,-1,-1,8,-1,10,12,14,16,18,20,-1,-1,-1,-1,-1,-1,-1,-1],"split_conditions":[-1.2562428E0,1.1575638E-1,1.6433371E0,5.9326254E-3,8.99989E-4,6.7201984E-1,6.2327185E-3,-1.4926871E0,1.3229928E0,1.334007E-1,-4.06849E-1,8.599863E-1,-2.7904558E-1,-0E0,1.113219E-2,3.379293E-3,-2.6757792E-3,-8.903354E-3,-4.434351E-3,-4.756622E-3,1.3934944E-3],"split_indices":[100,101,101,0,0,101,0,9,101,4,74,100,13,0,0,0,0,0,0,0,0],"split_type":[0,0,0,0,0,0,0,0,0,0,0,0,0,0,0,0,0,0,0,0,0],"sum_hessian":[2.46E2,3.2E1,2.14E2,2.6E1,6E0,2E2,1.4E1,1.57E2,4.3E1,2.1E1,1.36E2,3E1,1.3E1,1.1E1,1E1,3E1,1.06E2,1.1E1,1.9E1,6E0,7E0],"tree_param":{"num_deleted":"0","num_feature":"105","num_nodes":"21","size_leaf_vector":"1"}},{"base_weights":[6.024944E-3,3.8336378E-2,-1.21936135E-1,-6.647407E-2,7.132924E-2,-2.123498E-1,-8.8590215E-4,-1.243945E-1,1.4447892E-1,4.8611376E-2,2.6285362E-1,-1.7942887E-2,-2.744951E-1,5.746907E-2,-5.48232E-3,4.5702178E-2,-1.8427208E-1,-4.8340764E-3,6.7033945E-3,8.34579E-2,-1.1884178E-1,1.1071088E-2,-7.546673E-3,3.5426142E-3,-9.963408E-2,-3.2324895E-1,-0E0,1.4925759E-1,-8.0694176E-2,-1.8262577E-3,7.3736142E-3,-9.775099E-3,-2.4590245E-3,-3.027495E-4,-0E0,4.4825156E-3,5.993678E-4,-5.275269E-3,-0E0,-3.295321E-3,-0E0,-1.0153718E-2,-0E0,4.7940994E-4,-6.391591E-4,5.1996913E-3,-0E0,-0E0,-4.901088E-3],"categories":[],"categories_nodes":[],"categories_segments":[],"categories_sizes":[],"default_left":[0,0,0,0,0,0,0,0,0,0,0,0,0,0,0,0,0,0,0,0,0,0,0,0,0,0,0,0,0,0,0,0,0,0,0,0,0,0,0,0,0,0,0,0,0,0,0,0,0],"id":30,"left_children":[1,3,5,7,9,11,13,15,17,19,21,23,25,27,-1,29,31,33,-1,35,37,-1,-1,-1,39,41,43,45,47,-1,-1,-1,-1,-1,-1,-1,-1,-1,-1,-1,-1,-1,-1,-1,-1,-1,-1,-1,-1],"loss_changes":[9.886201E-1,6.7262053E-1,5.038288E-1,5.780143E-1,6.000277E-1,2.920308E-1,2.5650078E-1,3.9912283E-1,1.4085022E-1,7.882915E-1,9.2390156E-1,9.8819844E-2,2.69377E-1,2.3449115E-1,0E0,2.4669898E-1,3.3802736E-1,2.12051E-4,0E0,4.4902247E-1,1.3897017E-1,0E0,0E0,0E0,7.6685846E-4,5.652523E-2,1.6739449E-3,5.5352688E-2,3.4488026E-2,0E0,0E0,0E0,0E0,0E0,0E0,0E0,0E0,0E0,0E0,0E0,0E0,0E0,0E0,0E0,0E0,0E0,0E0,0E0,0E0],"parents":[2147483647,0,0,1,1,2,2,3,3,4,4,5,5,6,6,7,7,8,8,9,9,10,10,11,11,12,12,13,13,15,15,16,16,17,17,19,19,20,20,24,24,25,25,26,26,27,27,28,28],"right_children":[2,4,6,8,10,12,14,16,18,20,22,24,26,28,-1,30,32,34,-1,36,38,-1,-1,-1,40,42,44,46,48,-1,-1,-1,-1,-1,-1,-1,-1,-1,-1,-1,-1,-1,-1,-1,-1,-1,-1,-1,-1],"split_conditions":[6.029623E-1,-1.8001546E-1,5.648016E-2,3.3677423E-1,1.3942204E0,-6.1199075E-1,5.637306E-1,-1.5355542E-1,-2.9605958E-1,9.913642E-1,2.8879374E-1,-2.6154718E-1,1.4465694E0,1.3545583E-1,-5.48232E-3,7.387254E-1,-2.7180645E-1,-2.0777683E0,6.7033945E-3,-2.7464526E-2,6.2359003E-3,1.1071088E-2,-7.546673E-3,3.5426142E-3,-4.1756816E-2,5.628773E-1,2.8401496E0,1.1147475E0,-1.5059389E0,-1.8262577E-3,7.3736142E-3,-9.775099E-3,-2.4590245E-3,-3.027495E-4,-0E0,4.4825156E-3,5.993678E-4,-5.275269E-3,-0E0,-3.295321E-3,-0E0,-1.0153718E-2,-0E0,4.7940994E-4,-6.391591E-4,5.1996913E-3,-0E0,-0E0,-4.901088E-3],"split_indices":[29,91,92,45,100,36,33,95,25,100,86,5,12,79,0,20,48,5,0,57,40,0,0,0,0,57,0,7,0,0,0,0,0,0,0,0,0,0,0,0,0,0,0,0,0,0,0,0,0],"split_type":[0,0,0,0,0,0,0,0,0,0,0,0,0,0,0,0,0,0,0,0,0,0,0,0,0,0,0,0,0,0,0,0,0,0,0,0,0,0,0,0,0,0,0,0,0,0,0,0,0],"sum_hessian":[2.39E2,1.92E2,4.7E1,4.5E1,1.47E2,2.6E1,2.1E1,3.6E1,9E0,1.33E2,1.4E1,7E0,1.9E1,1.6E1,5E0,9E0,2.7E1,3E0,6E0,1.11E2,2.2E1,1.2E1,2E0,2E0,5E0,1.6E1,3E0,1E1,6E0,6E0,3E0,1E1,1.7E1,2E0,1E0,5.3E1,5.8E1,1.4E1,8E0,4E0,1E0,1.5E1,1E0,2E0,1E0,9E0,1E0,4E0,2E0],"tree_param":{"num_deleted":"0","num_feature":"105","num_nodes":"49","size_leaf_vector":"1"}},{"base_weights":[-5.186082E-3,1.7752847E-1,-2.8041113E-2,4.49702E-4,5.7916353E-3,-4.717523E-2,5.9200623E-3,1.6021313E-1,-6.742023E-2,9.392457E-3,4.935522E-2,-3.7930716E-2,-1.915481E-1,-0E0,3.3710126E-3,1.9534563E-3,-2.5982985E-3,1.2900035E-3,-7.0621837E-3],"categories":[],"categories_nodes":[],"categories_segments":[],"categories_sizes":[],"default_left":[0,0,0,0,0,0,0,0,0,0,0,0,0,0,0,0,0,0,0],"id":31,"left_children":[1,3,5,-1,-1,7,-1,9,11,-1,13,15,17,-1,-1,-1,-1,-1,-1],"loss_changes":[1.0173123E0,4.4438362E-2,9.43017E-1,0E0,0E0,8.58032E-1,0E0,2.5334495E-1,6.542945E-1,0E0,4.652694E-2,7.7526736E-1,3.894019E-1,0E0,0E0,0E0,0E0,0E0,0E0],"parents":[2147483647,0,0,1,1,2,2,5,5,7,7,8,8,10,10,11,11,12,12],"right_children":[2,4,6,-1,-1,8,-1,10,12,-1,14,16,18,-1,-1,-1,-1,-1,-1],"split_conditions":[-1.2562428E0,-1.2940536E0,1.754211E0,4.49702E-4,5.7916353E-3,-9.8735535E-1,5.9200623E-3,-2.6275608E-1,9.16298E-1,9.392457E-3,-7.3560756E-1,-3.944781E-1,-6.7413443E-1,-0E0,3.3710126E-3,1.9534563E-3,-2.5982985E-3,1.2900035E-3,-7.0621837E-3],"split_indices":[100,102,104,0,0,39,0,82,17,0,7,19,56,0,0,0,0,0,0],"split_type":[0,0,0,0,0,0,0,0,0,0,0,0,0,0,0,0,0,0,0],"sum_hessian":[2.45E2,2.6E1,2.19E2,3E0,2.3E1,2.03E2,1.6E1,1.7E1,1.86E2,6E0,1.1E1,1.52E2,3.4E1,6E0,5E0,4.8E1,1.04E2,5E0,2.9E1],"tree_param":{"num_deleted":"0","num_feature":"105","num_nodes":"19","size_leaf_vector":"1"}},{"base_weights":[-3.967751E-3,1.672705E-1,-3.26912E-2,5.738919E-3,8.864809E-4,-5.23674E-2,5.7061343E-3,1.0331449E-1,-7.5272515E-2,-3.5477716E-2,2.0487447E-1,8.76191E-2,-1.0425149E-1,-3.9536594E-3,1.5023852E-3,8.414191E-3,-0E0,6.150081E-3,-3.3208472E-3,-1.2167963E-3,-5.4086633E-3],"categories":[],"categories_nodes":[],"categories_segments":[],"categories_sizes":[],"default_left":[0,0,0,0,0,0,0,0,0,0,0,0,0,0,0,0,0,0,0,0,0],"id":32,"left_children":[1,3,5,-1,-1,7,-1,9,11,13,15,17,19,-1,-1,-1,-1,-1,-1,-1,-1],"loss_changes":[1.2019744E0,8.8077545E-2,9.259538E-1,0E0,0E0,7.0389116E-1,0E0,3.766015E-1,8.22712E-1,1.0541188E-1,2.3571312E-1,6.373725E-1,6.825143E-1,0E0,0E0,0E0,0E0,0E0,0E0,0E0,0E0],"parents":[2147483647,0,0,1,1,2,2,5,5,7,7,8,8,9,9,10,10,11,11,12,12],"right_children":[2,4,6,-1,-1,8,-1,10,12,14,16,18,20,-1,-1,-1,-1,-1,-1,-1,-1],"split_conditions":[-1.2562428E0,1.1575638E-1,1.6433371E0,5.738919E-3,8.864809E-4,-5.6392455E-1,5.7061343E-3,1.8468624E-1,-1.5601553E0,1.0907767E-2,-1.4712115E-1,1.2430627E-1,1.4571339E-1,-3.9536594E-3,1.5023852E-3,8.414191E-3,-0E0,6.150081E-3,-3.3208472E-3,-1.2167963E-3,-5.4086633E-3],"split_indices":[100,101,101,0,0,53,0,25,7,88,13,44,8,0,0,0,0,0,0,0,0],"split_type":[0,0,0,0,0,0,0,0,0,0,0,0,0,0,0,0,0,0,0,0,0],"sum_hessian":[2.45E2,3.4E1,2.11E2,2.8E1,6E0,1.95E2,1.6E1,2.4E1,1.71E2,1E1,1.4E1,2.5E1,1.46E2,5E0,5E0,1E1,4E0,1.6E1,9E0,8.1E1,6.5E1],"tree_param":{"num_deleted":"0","num_feature":"105","num_nodes":"21","size_leaf_vector":"1"}},{"base_weights":[-3.5422825E-4,2.174136E-2,-1.9436212E-1,-6.816993E-3,1.2289216E-2,6.346135E-2,-3.2530618E-1,4.0866572E-2,-1.064859E-1,-4.0575097E-4,5.642267E-3,-4.1324776E-3,-1.0941828E-2,-1.0885106E-2,5.6606352E-2,1.2455407E-1,-1.567767E-1,5.1339148E-3,4.2320543E-4,7.88911E-3,-0E0,-7.1461685E-3,-1.3660127E-3],"categories":[],"categories_nodes":[],"categories_segments":[],"categories_sizes":[],"default_left":[0,0,0,0,0,0,0,0,0,0,0,0,0,0,0,0,0,0,0,0,0,0,0],"id":33,"left_children":[1,3,5,7,-1,9,11,13,15,-1,-1,-1,-1,-1,17,19,21,-1,-1,-1,-1,-1,-1],"loss_changes":[1.0460134E0,2.4247937E0,8.9084005E-1,9.6617997E-1,0E0,1.0634117E-1,2.5205255E-2,8.540875E-1,7.8961563E-1,0E0,0E0,0E0,0E0,0E0,6.2153506E-1,2.2875576E-1,4.5899117E-1,0E0,0E0,0E0,0E0,0E0,0E0],"parents":[2147483647,0,0,1,1,2,2,3,3,5,5,6,6,7,7,8,8,14,14,15,15,16,16],"right_children":[2,4,6,8,-1,10,12,14,16,-1,-1,-1,-1,-1,18,20,22,-1,-1,-1,-1,-1,-1],"split_conditions":[1.6293643E0,1.2058498E0,-1.3928998E0,8.623621E-2,1.2289216E-2,1.2294171E0,-1.0395391E0,-1.5356797E0,-1.4928536E0,-4.0575097E-4,5.642267E-3,-4.1324776E-3,-1.0941828E-2,-1.0885106E-2,-7.0769465E-1,5.4076865E-2,6.9648045E-1,5.1339148E-3,4.2320543E-4,7.88911E-3,-0E0,-7.1461685E-3,-1.3660127E-3],"split_indices":[102,102,101,102,0,2,101,101,101,0,0,0,0,0,101,10,102,0,0,0,0,0,0],"split_type":[0,0,0,0,0,0,0,0,0,0,0,0,0,0,0,0,0,0,0,0,0,0,0],"sum_hessian":[2.38E2,2.14E2,2.4E1,2E2,1.4E1,8E0,1.6E1,1.35E2,6.5E1,5E0,3E0,4E0,1.2E1,4E0,1.31E2,1.1E1,5.4E1,3.4E1,9.7E1,5E0,6E0,3E1,2.4E1],"tree_param":{"num_deleted":"0","num_feature":"105","num_nodes":"23","size_leaf_vector":"1"}},{"base_weights":[-2.91496E-4,1.6143867E-1,-2.3209598E-2,5.5452455E-3,7.2762556E-4,-3.862372E-2,5.613092E-3,1.9265574E-3,-1.2003981E-1,4.5692734E-2,-1.4360933E-1,-1.3867855E-1,5.355907E-3,-4.83645E-3,2.704422E-3,-4.92372E-3,1.8719223E-3,-4.9350974E-3,3.5221959E-3],"categories":[],"categories_nodes":[],"categories_segments":[],"categories_sizes":[],"default_left":[0,0,0,0,0,0,0,0,0,0,0,0,0,0,0,0,0,0,0],"id":34,"left_children":[1,3,5,-1,-1,7,-1,9,11,13,15,17,-1,-1,-1,-1,-1,-1,-1],"loss_changes":[8.68376E-1,6.771195E-2,6.699117E-1,0E0,0E0,6.591258E-1,0E0,8.311812E-1,3.880611E-1,9.4562376E-1,1.4719832E-1,4.4066238E-1,0E0,0E0,0E0,0E0,0E0,0E0,0E0],"parents":[2147483647,0,0,1,1,2,2,5,5,7,7,8,8,9,9,10,10,11,11],"right_children":[2,4,6,-1,-1,8,-1,10,12,14,16,18,-1,-1,-1,-1,-1,-1,-1],"split_conditions":[-1.2562428E0,1.1575638E-1,1.6433371E0,5.5452455E-3,7.2762556E-4,4.378517E-1,5.613092E-3,6.7201984E-1,6.4528215E-1,-6.697327E-1,4.3288025E-1,6.942498E-1,5.355907E-3,-4.83645E-3,2.704422E-3,-4.92372E-3,1.8719223E-3,-4.9350974E-3,3.5221959E-3],"split_indices":[100,101,101,0,0,19,0,101,69,44,78,86,0,0,0,0,0,0,0],"split_type":[0,0,0,0,0,0,0,0,0,0,0,0,0,0,0,0,0,0,0],"sum_hessian":[2.36E2,2.8E1,2.08E2,2.3E1,5E0,1.95E2,1.3E1,1.3E2,6.5E1,1.01E2,2.9E1,6.2E1,3E0,1.7E1,8.4E1,2.7E1,2E0,5.7E1,5E0],"tree_param":{"num_deleted":"0","num_feature":"105","num_nodes":"19","size_leaf_vector":"1"}},{"base_weights":[6.74228E-3,1.0382689E-1,-4.1823648E-2,1.613899E-1,1.9059705E-2,1.0580657E-1,-7.287418E-2,1.986107E-1,9.046275E-3,-7.924834E-2,4.8626093E-3,-1.7483937E-2,2.7998424E-1,2.4006799E-2,-1.3317105E-1,-0E0,2.0287128E-1,2.4084284E-3,-3.3205391E-3,-7.6507875E-3,-1.7004926E-2,2.9334398E-2,-3.7461983E-3,4.2485543E-2,1.0299562E-2,1.930972E-1,-4.7059506E-2,-1.6188215E-1,1.9149125E-1,3.2079786E-3,6.6660447E-3,-8.081216E-4,-0E0,-0E0,2.5017802E-3,-0E0,1.7990222E-3,-1.8732713E-3,8.754418E-3,-3.93784E-3,2.3556177E-3,-7.0472723E-3,-1.5645358E-3,9.144806E-3,-8.369567E-4],"categories":[],"categories_nodes":[],"categories_segments":[],"categories_sizes":[],"default_left":[0,0,0,0,0,0,0,0,0,0,0,0,0,0,0,0,0,0,0,0,0,0,0,0,0,0,0,0,0,0,0,0,0,0,0,0,0,0,0,0,0,0,0,0,0],"id":35,"left_children":[1,3,5,7,9,11,13,15,17,19,-1,21,23,25,27,-1,29,-1,-1,-1,31,33,-1,35,-1,37,39,41,43,-1,-1,-1,-1,-1,-1,-1,-1,-1,-1,-1,-1,-1,-1,-1,-1],"loss_changes":[1.1562887E0,3.7899423E-1,7.470249E-1,2.4961436E-1,5.1325464E-1,6.3242996E-1,8.027321E-1,2.3844004E-2,9.966441E-2,1.9822153E-1,0E0,9.86894E-2,1.2733579E-1,6.4855564E-1,8.110367E-1,0E0,1.1943102E-2,0E0,0E0,0E0,4.517249E-3,2.4445605E-2,0E0,3.5681846E-3,0E0,4.4477516E-1,4.068215E-1,5.8408165E-1,2.1024981E-1,0E0,0E0,0E0,0E0,0E0,0E0,0E0,0E0,0E0,0E0,0E0,0E0,0E0,0E0,0E0,0E0],"parents":[2147483647,0,0,1,1,2,2,3,3,4,4,5,5,6,6,7,7,8,8,9,9,11,11,12,12,13,13,14,14,16,16,20,20,21,21,23,23,25,25,26,26,27,27,28,28],"right_children":[2,4,6,8,10,12,14,16,18,20,-1,22,24,26,28,-1,30,-1,-1,-1,32,34,-1,36,-1,38,40,42,44,-1,-1,-1,-1,-1,-1,-1,-1,-1,-1,-1,-1,-1,-1,-1,-1],"split_conditions":[-5.9084994E-1,-9.399416E-1,-5.5836743E-1,4.921404E-1,-5.8338684E-1,5.7585275E-1,-1.5258941E-1,-2.8653183E0,-1.2562428E0,-7.774917E-1,4.8626093E-3,-4.9838504E-1,-3.4160972E0,-7.9338527E-1,4.8024333E-1,-0E0,-1.0645356E0,2.4084284E-3,-3.3205391E-3,-7.6507875E-3,5.399513E-1,2.582311E-1,-3.7461983E-3,-4.5698643E0,1.0299562E-2,-3.9565518E-1,2.0492978E0,4.03016E-1,3.0489004E0,3.2079786E-3,6.6660447E-3,-8.081216E-4,-0E0,-0E0,2.5017802E-3,-0E0,1.7990222E-3,-1.8732713E-3,8.754418E-3,-3.93784E-3,2.3556177E-3,-7.0472723E-3,-1.5645358E-3,9.144806E-3,-8.369567E-4],"split_indices":[102,100,39,19,100,102,58,10,100,100,0,100,1,10,98,0,101,0,0,0,42,36,0,1,0,32,1,101,0,0,0,0,0,0,0,0,0,0,0,0,0,0,0,0,0],"split_type":[0,0,0,0,0,0,0,0,0,0,0,0,0,0,0,0,0,0,0,0,0,0,0,0,0,0,0,0,0,0,0,0,0,0,0,0,0,0,0,0,0,0,0,0,0],"sum_hessian":[2.42E2,8.1E1,1.61E2,4.7E1,3.4E1,2.7E1,1.34E2,3.7E1,1E1,2E1,1.4E1,1.6E1,1.1E1,5.1E1,8.3E1,1E0,3.6E1,7E0,3E0,4E0,1.6E1,1.1E1,5E0,3E0,8E0,1.5E1,3.6E1,7.7E1,6E0,8E0,2.8E1,1.2E1,4E0,7E0,4E0,1E0,2E0,4E0,1.1E1,2.2E1,1.4E1,4.5E1,3.2E1,4E0,2E0],"tree_param":{"num_deleted":"0","num_feature":"105","num_nodes":"45","size_leaf_vector":"1"}},{"base_weights":[9.020128E-3,1.5173237E-1,-1.40031045E-2,5.0783795E-3,6.6126656E-4,-3.22772E-2,5.406116E-3,9.6562475E-2,-6.053097E-2,-6.0432453E-2,1.3457634E-1,1.6185191E-1,-8.16909E-2,-0E0,-2.7380313E-3,5.8014784E-3,-0E0,-2.6236854E-3,8.409623E-3,-5.7404857E-5,-4.368961E-3],"categories":[],"categories_nodes":[],"categories_segments":[],"categories_sizes":[],"default_left":[0,0,0,0,0,0,0,0,0,0,0,0,0,0,0,0,0,0,0,0,0],"id":36,"left_children":[1,3,5,-1,-1,7,-1,9,11,13,15,17,19,-1,-1,-1,-1,-1,-1,-1,-1],"loss_changes":[8.274648E-1,5.6784928E-2,7.469516E-1,0E0,0E0,7.1572244E-1,0E0,2.2442654E-1,7.6751393E-1,7.754609E-3,2.2272396E-1,4.5729575E-1,7.450244E-1,0E0,0E0,0E0,0E0,0E0,0E0,0E0,0E0],"parents":[2147483647,0,0,1,1,2,2,5,5,7,7,8,8,9,9,10,10,11,11,12,12],"right_children":[2,4,6,-1,-1,8,-1,10,12,14,16,18,20,-1,-1,-1,-1,-1,-1,-1,-1],"split_conditions":[-1.2562428E0,1.1575638E-1,1.6433371E0,5.0783795E-3,6.6126656E-4,-4.1144508E-1,5.406116E-3,-2.280846E0,-6.472665E-1,1.8212746E-1,4.1656652E-1,-1.2781191E-1,-2.6592001E-2,-0E0,-2.7380313E-3,5.8014784E-3,-0E0,-2.6236854E-3,8.409623E-3,-5.7404857E-5,-4.368961E-3],"split_indices":[100,101,101,0,0,74,0,1,76,18,71,56,50,0,0,0,0,0,0,0,0],"split_type":[0,0,0,0,0,0,0,0,0,0,0,0,0,0,0,0,0,0,0,0,0],"sum_hessian":[2.46E2,3.4E1,2.12E2,2.9E1,5E0,1.95E2,1.7E1,3.4E1,1.61E2,6E0,2.8E1,1.3E1,1.48E2,3E0,3E0,1.9E1,9E0,4E0,9E0,6.7E1,8.1E1],"tree_param":{"num_deleted":"0","num_feature":"105","num_nodes":"21","size_leaf_vector":"1"}},{"base_weights":[2.4989743E-3,1.470919E-1,-1.9704321E-2,4.9700486E-3,6.6948304E-4,-3.8843013E-2,5.239937E-3,1.768626E-1,-5.7899322E-2,-0E0,8.662466E-3,-7.95517E-3,-4.2942863E-2,1.0751191E-3,-8.7377535E-5,-1.7527582E-3,5.6934156E-3],"categories":[],"categories_nodes":[],"categories_segments":[],"categories_sizes":[],"default_left":[0,0,0,0,0,0,0,0,0,0,0,0,0,0,0,0,0],"id":37,"left_children":[1,3,5,-1,-1,7,-1,9,11,13,-1,-1,15,-1,-1,-1,-1],"loss_changes":[7.7009034E-1,5.167681E-2,7.520755E-1,0E0,0E0,7.670171E-1,0E0,2.811775E-1,4.9411345E-1,2.6195236E-3,0E0,0E0,5.8526075E-1,0E0,0E0,0E0,0E0],"parents":[2147483647,0,0,1,1,2,2,5,5,7,7,8,8,9,9,12,12],"right_children":[2,4,6,-1,-1,8,-1,10,12,14,-1,-1,16,-1,-1,-1,-1],"split_conditions":[-1.2562428E0,1.1575638E-1,1.6433371E0,4.9700486E-3,6.6948304E-4,-6.472665E-1,5.239937E-3,6.006275E-1,-1.0054617E0,-4.4330206E0,8.662466E-3,-7.95517E-3,5.6470364E-1,1.0751191E-3,-8.7377535E-5,-1.7527582E-3,5.6934156E-3],"split_indices":[100,101,101,0,0,76,0,4,100,2,0,0,98,0,0,0,0],"split_type":[0,0,0,0,0,0,0,0,0,0,0,0,0,0,0,0,0],"sum_hessian":[2.34E2,3.1E1,2.03E2,2.6E1,5E0,1.86E2,1.7E1,1.4E1,1.72E2,6E0,8E0,1E1,1.62E2,1E0,5E0,1.53E2,9E0],"tree_param":{"num_deleted":"0","num_feature":"105","num_nodes":"17","size_leaf_vector":"1"}},{"base_weights":[-3.3164097E-3,4.99912E-2,-5.786362E-2,6.375512E-2,-7.9450635E-3,-1.1075886E-1,2.5647163E-2,3.441171E-2,2.904202E-1,-1.3934746E-1,5.9151847E-2,7.2211355E-2,-2.3646411E-1,1.0702485E-1,-2.355172E-2,1.0736485E-2,-6.1248324E-4,-8.5486315E-2,-3.4052387E-1,-4.4232015E-2,1.6934374E-1,1.3172455E-1,-9.29814E-2,-8.070811E-3,-0E0,4.782094E-3,-3.650283E-4,-1.5965133E-3,6.9208625E-3,5.4241004E-3,-3.388648E-3,-0E0,-1.1029907E-2,-0E0,-1.8301836E-3,5.6797857E-3,-0E0,5.5932E-3,-2.0465965E-3,-0E0,-4.5828274E-3],"categories":[],"categories_nodes":[],"categories_segments":[],"categories_sizes":[],"default_left":[0,0,0,0,0,0,0,0,0,0,0,0,0,0,0,0,0,0,0,0,0,0,0,0,0,0,0,0,0,0,0,0,0,0,0,0,0,0,0,0,0],"id":38,"left_children":[1,3,5,7,-1,9,11,13,15,17,19,21,23,25,27,-1,-1,29,31,33,35,37,39,-1,-1,-1,-1,-1,-1,-1,-1,-1,-1,-1,-1,-1,-1,-1,-1,-1,-1],"loss_changes":[7.0736307E-1,5.254327E-1,5.458479E-1,7.423559E-1,0E0,3.8057548E-1,5.7428515E-1,4.5701203E-1,3.136611E-1,6.3260233E-1,1.4531428E-1,4.1919926E-1,4.2846292E-2,3.163318E-1,4.3952727E-1,0E0,0E0,4.0131205E-1,1.1468327E-1,6.8699075E-3,7.15822E-3,3.6368257E-1,6.825035E-2,0E0,0E0,0E0,0E0,0E0,0E0,0E0,0E0,0E0,0E0,0E0,0E0,0E0,0E0,0E0,0E0,0E0,0E0],"parents":[2147483647,0,0,1,1,2,2,3,3,5,5,6,6,7,7,8,8,9,9,10,10,11,11,12,12,13,13,14,14,17,17,18,18,19,19,20,20,21,21,22,22],"right_children":[2,4,6,8,-1,10,12,14,16,18,20,22,24,26,28,-1,-1,30,32,34,36,38,40,-1,-1,-1,-1,-1,-1,-1,-1,-1,-1,-1,-1,-1,-1,-1,-1,-1,-1],"split_conditions":[5.1988654E-2,1.5867357E0,4.0065542E-1,1.3592441E0,-7.9450635E-3,1.4653356E0,3.8869983E-1,-5.9084994E-1,1.8301331E0,3.3769286E-1,-4.3863466E-1,3.043988E-1,4.9014655E-1,1.15858965E-1,6.173508E-1,1.0736485E-2,-6.1248324E-4,-6.625848E-1,-8.856799E-1,-6.107233E0,2.6303146E0,1.2575093E-1,3.2159272E-1,-8.070811E-3,-0E0,4.782094E-3,-3.650283E-4,-1.5965133E-3,6.9208625E-3,5.4241004E-3,-3.388648E-3,-0E0,-1.1029907E-2,-0E0,-1.8301836E-3,5.6797857E-3,-0E0,5.5932E-3,-2.0465965E-3,-0E0,-4.5828274E-3],"split_indices":[8,100,11,100,0,12,48,102,2,81,28,19,0,42,85,0,0,71,5,0,0,62,12,0,0,0,0,0,0,0,0,0,0,0,0,0,0,0,0,0,0],"split_type":[0,0,0,0,0,0,0,0,0,0,0,0,0,0,0,0,0,0,0,0,0,0,0,0,0,0,0,0,0,0,0,0,0,0,0,0,0,0,0,0,0],"sum_hessian":[2.41E2,1.21E2,1.2E2,1.17E2,4E0,7.4E1,4.6E1,1.05E2,1.2E1,6.4E1,1E1,4E1,6E0,4.7E1,5.8E1,1E1,2E0,5.2E1,1.2E1,5E0,5E0,3E1,1E1,5E0,1E0,3.3E1,1.4E1,5.3E1,5E0,4E0,4.8E1,1E0,1.1E1,1E0,4E0,4E0,1E0,2.4E1,6E0,4E0,6E0],"tree_param":{"num_deleted":"0","num_feature":"105","num_nodes":"41","size_leaf_vector":"1"}},{"base_weights":[-8.513354E-3,3.571293E-2,-8.4365964E-2,4.6936646E-2,-7.836125E-3,-1.9451126E-1,-1.772021E-2,8.90616E-2,-4.9088534E-2,3.6065713E-2,-3.2813188E-1,-4.6246126E-2,9.762458E-3,1.3052724E-1,-9.220855E-3,-1.6556935E-1,4.1004136E-2,-1.7044593E-1,1.7312728E-1,-1.0605594E-2,-3.3960075E-3,-7.651672E-2,1.1352292E-1,-1.4867164E-3,4.907547E-3,-2.970574E-3,3.0367395E-3,-1.4773431E-3,-8.347084E-3,5.7875463E-3,-1.1591052E-4,-0E0,-6.2757283E-3,5.6426683E-3,-0E0,-3.723068E-3,1.1643155E-3,3.722335E-3,-0E0],"categories":[],"categories_nodes":[],"categories_segments":[],"categories_sizes":[],"default_left":[0,0,0,0,0,0,0,0,0,0,0,0,0,0,0,0,0,0,0,0,0,0,0,0,0,0,0,0,0,0,0,0,0,0,0,0,0,0,0],"id":39,"left_children":[1,3,5,7,-1,9,11,13,15,17,19,21,-1,23,25,27,29,31,33,-1,-1,35,37,-1,-1,-1,-1,-1,-1,-1,-1,-1,-1,-1,-1,-1,-1,-1,-1],"loss_changes":[7.6268107E-1,4.6405017E-1,5.9195036E-1,5.6658703E-1,0E0,9.9614596E-1,5.1569796E-1,4.086427E-1,4.599964E-1,3.694347E-1,2.2442818E-2,2.516373E-1,0E0,4.302783E-1,2.974193E-1,2.0256263E-1,1.832361E-1,2.9784337E-2,7.85771E-3,0E0,0E0,2.5481367E-1,4.6675354E-3,0E0,0E0,0E0,0E0,0E0,0E0,0E0,0E0,0E0,0E0,0E0,0E0,0E0,0E0,0E0,0E0],"parents":[2147483647,0,0,1,1,2,2,3,3,5,5,6,6,7,7,8,8,9,9,10,10,11,11,13,13,14,14,15,15,16,16,17,17,18,18,21,21,22,22],"right_children":[2,4,6,8,-1,10,12,14,16,18,20,22,-1,24,26,28,30,32,34,-1,-1,36,38,-1,-1,-1,-1,-1,-1,-1,-1,-1,-1,-1,-1,-1,-1,-1,-1],"split_conditions":[2.4466382E-1,1.5867357E0,-2.626461E-1,4.0050852E-1,-7.836125E-3,-1.1839653E-1,9.1623354E-1,3.9151567E-1,6.3968495E-2,-3.6261645E-1,6.825188E-1,1.2774755E0,9.762458E-3,-1.450248E0,1.1467632E0,-1.7409775E-1,-8.3710444E-1,-6.9490156E0,2.148208E0,-1.0605594E-2,-3.3960075E-3,4.272508E-1,6.8493176E-1,-1.4867164E-3,4.907547E-3,-2.970574E-3,3.0367395E-3,-1.4773431E-3,-8.347084E-3,5.7875463E-3,-1.1591052E-4,-0E0,-6.2757283E-3,5.6426683E-3,-0E0,-3.723068E-3,1.1643155E-3,3.722335E-3,-0E0],"split_indices":[22,100,104,30,0,83,102,104,11,18,99,12,0,104,104,87,36,0,6,0,0,48,6,0,0,0,0,0,0,0,0,0,0,0,0,0,0,0,0],"split_type":[0,0,0,0,0,0,0,0,0,0,0,0,0,0,0,0,0,0,0,0,0,0,0,0,0,0,0,0,0,0,0,0,0,0,0,0,0,0,0],"sum_hessian":[2.24E2,1.41E2,8.3E1,1.37E2,4E0,3E1,5.3E1,9.6E1,4.1E1,1.1E1,1.9E1,5E1,3E0,6.8E1,2.8E1,1.8E1,2.3E1,4E0,7E0,1.6E1,3E0,4.3E1,7E0,1E1,5.8E1,1.6E1,1.2E1,1E1,8E0,5E0,1.8E1,1E0,3E0,6E0,1E0,3.1E1,1.2E1,6E0,1E0],"tree_param":{"num_deleted":"0","num_feature":"105","num_nodes":"39","size_leaf_vector":"1"}},{"base_weights":[1.4499159E-3,1.3145548E-1,-1.6915383E-2,4.5876643E-3,7.437133E-4,-3.229409E-2,4.873089E-3,-4.976057E-2,1.5669721E-1,1.4424926E-1,-6.5350674E-2,-1.0074975E-1,2.3155034E-1,-2.4492727E-3,7.944842E-3,-5.463653E-3,-1.1827729E-3,-0E0,-5.602916E-3,8.1755575E-3,1.3872638E-3],"categories":[],"categories_nodes":[],"categories_segments":[],"categories_sizes":[],"default_left":[0,0,0,0,0,0,0,0,0,0,0,0,0,0,0,0,0,0,0,0,0],"id":40,"left_children":[1,3,5,-1,-1,7,-1,9,11,13,15,17,19,-1,-1,-1,-1,-1,-1,-1,-1],"loss_changes":[5.771491E-1,4.712999E-2,5.6317824E-1,0E0,0E0,6.308981E-1,0E0,5.3689706E-1,3.4474006E-1,3.940305E-1,4.701661E-1,2.9159434E-2,5.4214835E-2,0E0,0E0,0E0,0E0,0E0,0E0,0E0,0E0],"parents":[2147483647,0,0,1,1,2,2,5,5,7,7,8,8,9,9,10,10,11,11,12,12],"right_children":[2,4,6,-1,-1,8,-1,10,12,14,16,18,20,-1,-1,-1,-1,-1,-1,-1,-1],"split_conditions":[-1.2562428E0,1.1575638E-1,1.6433371E0,4.5876643E-3,7.437133E-4,2.3639019E0,4.873089E-3,-6.472665E-1,-4.2639706E-1,-2.7290055E-1,-6.013427E-1,-1.8837793E0,2.7891365E-1,-2.4492727E-3,7.944842E-3,-5.463653E-3,-1.1827729E-3,-0E0,-5.602916E-3,8.1755575E-3,1.3872638E-3],"split_indices":[100,101,101,0,0,6,0,76,97,77,31,0,79,0,0,0,0,0,0,0,0],"split_type":[0,0,0,0,0,0,0,0,0,0,0,0,0,0,0,0,0,0,0,0,0],"sum_hessian":[2.35E2,2.9E1,2.06E2,2.3E1,6E0,1.91E2,1.5E1,1.76E2,1.5E1,1.2E1,1.64E2,3E0,1.2E1,4E0,8E0,2.8E1,1.36E2,2E0,1E0,9E0,3E0],"tree_param":{"num_deleted":"0","num_feature":"105","num_nodes":"21","size_leaf_vector":"1"}},{"base_weights":[2.1651022E-3,-1.5462695E-1,2.7893845E-2,-6.7891225E-2,-8.9895455E-3,3.818212E-2,-7.893143E-3,-1.8507811E-1,4.6619937E-2,1.739422E-2,1.8315923E-1,-6.321586E-3,-1.3742052E-4,1.1059666E-1,-4.5066804E-2,5.5166546E-2,-6.39906E-2,1.1039622E-2,-8.065836E-3,3.7132257E-3,-0E0,-0E0,-1.6719842E-3,-2.4900746E-3,2.49682E-3,-2.9676114E-3,4.4945804E-3,5.8065807E-3,-3.9087306E-3],"categories":[],"categories_nodes":[],"categories_segments":[],"categories_sizes":[],"default_left":[0,0,0,0,0,0,0,0,0,0,0,0,0,0,0,0,0,0,0,0,0,0,0,0,0,0,0,0,0],"id":41,"left_children":[1,3,5,7,-1,9,-1,11,13,15,17,-1,-1,19,21,23,25,-1,27,-1,-1,-1,-1,-1,-1,-1,-1,-1,-1],"loss_changes":[9.759511E-1,3.705815E-1,6.19261E-1,3.311159E-1,0E0,5.9458154E-1,0E0,3.3043295E-2,8.1927024E-2,5.590588E-1,9.2255497E-1,0E0,0E0,9.387389E-3,2.2695E-3,4.9157208E-1,4.3542534E-1,0E0,3.3924925E-1,0E0,0E0,0E0,0E0,0E0,0E0,0E0,0E0,0E0,0E0],"parents":[2147483647,0,0,1,1,2,2,3,3,5,5,7,7,8,8,9,9,10,10,13,13,14,14,15,15,16,16,18,18],"right_children":[2,4,6,8,-1,10,-1,12,14,16,18,-1,-1,20,22,24,26,-1,28,-1,-1,-1,-1,-1,-1,-1,-1,-1,-1],"split_conditions":[-4.731585E-1,9.719383E-2,1.5867357E0,-1.2313278E-1,-8.9895455E-3,1.3942204E0,-7.893143E-3,4.9947903E-1,-9.941515E-3,9.427604E-2,1.4117671E0,-6.321586E-3,-1.3742052E-4,6.5674506E-2,-3.535517E0,-2.1917424E0,1.5808086E0,1.1039622E-2,6.424421E-1,3.7132257E-3,-0E0,-0E0,-1.6719842E-3,-2.4900746E-3,2.49682E-3,-2.9676114E-3,4.4945804E-3,5.8065807E-3,-3.9087306E-3],"split_indices":[79,90,100,92,0,100,0,24,66,100,100,0,0,3,0,2,101,0,21,0,0,0,0,0,0,0,0,0,0],"split_type":[0,0,0,0,0,0,0,0,0,0,0,0,0,0,0,0,0,0,0,0,0,0,0,0,0,0,0,0,0],"sum_hessian":[2.43E2,3.3E1,2.1E2,2.2E1,1.1E1,2.04E2,6E0,1.1E1,1.1E1,1.8E2,2.4E1,9E0,2E0,7E0,4E0,1.24E2,5.6E1,1.2E1,1.2E1,6E0,1E0,1E0,3E0,2E1,1.04E2,4.9E1,7E0,4E0,8E0],"tree_param":{"num_deleted":"0","num_feature":"105","num_nodes":"29","size_leaf_vector":"1"}},{"base_weights":[7.385694E-3,2.6365198E-2,-1.8596396E-1,6.2788036E-3,1.0557992E-2,4.9774502E-3,-2.5551933E-1,-1.0179526E-1,3.653145E-2,-9.697264E-3,-1.1473862E-3,-1.6405273E-2,-2.3290107E-1,7.042263E-2,-6.3666075E-2,-3.5231474E-3,3.009197E-3,-9.379635E-3,-2.448824E-3,2.5619532E-3,-3.8289758E-3,-3.1009386E-3,4.2293565E-3],"categories":[],"categories_nodes":[],"categories_segments":[],"categories_sizes":[],"default_left":[0,0,0,0,0,0,0,0,0,0,0,0,0,0,0,0,0,0,0,0,0,0,0],"id":42,"left_children":[1,3,5,7,-1,-1,9,11,13,-1,-1,15,17,19,21,-1,-1,-1,-1,-1,-1,-1,-1],"loss_changes":[9.063632E-1,1.4595113E0,5.898065E-1,7.066796E-1,0E0,0E0,2.3106086E-1,4.9741933E-1,5.858431E-1,0E0,0E0,3.6724532E-1,1.5221316E-1,3.892951E-1,3.6014688E-1,0E0,0E0,0E0,0E0,0E0,0E0,0E0,0E0],"parents":[2147483647,0,0,1,1,2,2,3,3,6,6,7,7,8,8,11,11,12,12,13,13,14,14],"right_children":[2,4,6,8,-1,-1,10,12,14,-1,-1,16,18,20,22,-1,-1,-1,-1,-1,-1,-1,-1],"split_conditions":[1.4117671E0,1.3942204E0,-1.3928998E0,-2.0301936E0,1.0557992E-2,4.9774502E-3,-4.3453324E-1,3.4778076E-1,7.0014876E-1,-9.697264E-3,-1.1473862E-3,1.13753386E-1,7.441505E-1,6.608912E-1,1.1280473E0,-3.5231474E-3,3.009197E-3,-9.379635E-3,-2.448824E-3,2.5619532E-3,-3.8289758E-3,-3.1009386E-3,4.2293565E-3],"split_indices":[100,100,101,2,0,0,101,9,100,0,0,52,101,63,101,0,0,0,0,0,0,0,0],"split_type":[0,0,0,0,0,0,0,0,0,0,0,0,0,0,0,0,0,0,0,0,0,0,0],"sum_hessian":[2.49E2,2.28E2,2.1E1,2.16E2,1.2E1,3E0,1.8E1,4.6E1,1.7E2,1.3E1,5E0,2.9E1,1.7E1,1.28E2,4.2E1,1.6E1,1.3E1,1E1,7E0,1.2E2,8E0,3.6E1,6E0],"tree_param":{"num_deleted":"0","num_feature":"105","num_nodes":"23","size_leaf_vector":"1"}},{"base_weights":[-3.0820891E-3,1.2622157E-1,-2.148516E-2,4.4938438E-3,5.9450587E-4,-4.0323973E-2,4.704646E-3,-1.2819322E-2,-1.4655004E-1,-3.6107097E-2,1.4192963E-1,-1.8526724E-1,5.8255102E-3,-6.701599E-3,-5.341674E-4,7.568235E-3,-3.6759016E-3,-6.6189975E-3,-9.1521404E-5],"categories":[],"categories_nodes":[],"categories_segments":[],"categories_sizes":[],"default_left":[0,0,0,0,0,0,0,0,0,0,0,0,0,0,0,0,0,0,0],"id":43,"left_children":[1,3,5,-1,-1,7,-1,9,11,13,15,17,-1,-1,-1,-1,-1,-1,-1],"loss_changes":[5.371631E-1,5.0302863E-2,6.732094E-1,0E0,0E0,5.197792E-1,0E0,5.278987E-1,5.231977E-1,4.174782E-1,5.983394E-1,1.9606388E-1,0E0,0E0,0E0,0E0,0E0,0E0,0E0],"parents":[2147483647,0,0,1,1,2,2,5,5,7,7,8,8,9,9,10,10,11,11],"right_children":[2,4,6,-1,-1,8,-1,10,12,14,16,18,-1,-1,-1,-1,-1,-1,-1],"split_conditions":[-1.2562428E0,5.2605744E-2,1.754211E0,4.4938438E-3,5.9450587E-4,9.16298E-1,4.704646E-3,1.3942204E0,1.1161222E0,-1.0054617E0,1.483893E0,1.0124736E0,5.8255102E-3,-6.701599E-3,-5.341674E-4,7.568235E-3,-3.6759016E-3,-6.6189975E-3,-9.1521404E-5],"split_indices":[100,104,104,0,0,17,0,100,24,100,100,21,0,0,0,0,0,0,0],"split_type":[0,0,0,0,0,0,0,0,0,0,0,0,0,0,0,0,0,0,0],"sum_hessian":[2.28E2,2.7E1,2.01E2,2.1E1,6E0,1.83E2,1.8E1,1.47E2,3.6E1,1.29E2,1.8E1,3.3E1,3E0,1E1,1.19E2,1.3E1,5E0,2.7E1,6E0],"tree_param":{"num_deleted":"0","num_feature":"105","num_nodes":"19","size_leaf_vector":"1"}},{"base_weights":[-0E0,8.225019E-3,-7.552132E-3,-7.750287E-3,1.5182552E-1,-1.0300031E-1,1.6676284E-2,9.022052E-3,-6.183045E-2,-1.5806404E-1,7.901E-2,5.1209636E-2,-7.9184316E-2,4.809396E-3,-1.1543677E-1,-8.126677E-3,-9.017572E-4,3.7793464E-3,-0E0,2.1138652E-3,-4.6706777E-3,-3.1720703E-3,3.553286E-3,-1.2997766E-3,-6.356497E-3],"categories":[],"categories_nodes":[],"categories_segments":[],"categories_sizes":[],"default_left":[0,0,0,0,0,0,0,0,0,0,0,0,0,0,0,0,0,0,0,0,0,0,0,0,0],"id":44,"left_children":[1,3,-1,5,7,9,11,-1,13,15,17,19,21,-1,23,-1,-1,-1,-1,-1,-1,-1,-1,-1,-1],"loss_changes":[4.5868936E-1,5.2716E-1,0E0,4.7800305E-1,7.7423966E-1,4.4132498E-1,5.309196E-1,0E0,1.3310142E-1,4.3835676E-1,3.279727E-2,4.7646368E-1,2.3163828E-1,0E0,2.7892627E-2,0E0,0E0,0E0,0E0,0E0,0E0,0E0,0E0,0E0,0E0],"parents":[2147483647,0,0,1,1,3,3,4,4,5,5,6,6,8,8,9,9,10,10,11,11,12,12,14,14],"right_children":[2,4,-1,6,8,10,12,-1,14,16,18,20,22,-1,24,-1,-1,-1,-1,-1,-1,-1,-1,-1,-1],"split_conditions":[1.5867357E0,1.3942204E0,-7.552132E-3,-2.0301936E0,6.424421E-1,1.6786838E0,7.0014876E-1,9.022052E-3,-1.8727016E0,-7.941279E-3,9.168435E-3,6.4160186E-1,1.3725687E0,4.809396E-3,1.6687803E0,-8.126677E-3,-9.017572E-4,3.7793464E-3,-0E0,2.1138652E-3,-4.6706777E-3,-3.1720703E-3,3.553286E-3,-1.2997766E-3,-6.356497E-3],"split_indices":[100,100,0,2,21,104,100,0,2,35,34,49,104,0,0,0,0,0,0,0,0,0,0,0,0],"split_type":[0,0,0,0,0,0,0,0,0,0,0,0,0,0,0,0,0,0,0,0,0,0,0,0,0],"sum_hessian":[2.28E2,2.22E2,6E0,2E2,2.2E1,4.1E1,1.59E2,1.3E1,9E0,3.2E1,9E0,1.18E2,4.1E1,1E0,8E0,1.6E1,1.6E1,5E0,4E0,1.09E2,9E0,3.7E1,4E0,6E0,2E0],"tree_param":{"num_deleted":"0","num_feature":"105","num_nodes":"25","size_leaf_vector":"1"}},{"base_weights":[-4.659615E-3,1.3663036E-2,-1.737087E-1,-1.750817E-3,9.82473E-3,4.336792E-2,-7.7627213E-3,1.2172681E-1,-2.6889438E-2,-0E0,3.3245506E-3,4.098905E-3,4.567022E-4,6.88675E-2,-6.2808886E-2,-2.5320263E-3,3.7163363E-3,2.9084047E-3,-2.510075E-3],"categories":[],"categories_nodes":[],"categories_segments":[],"categories_sizes":[],"default_left":[0,0,0,0,0,0,0,0,0,0,0,0,0,0,0,0,0,0,0],"id":45,"left_children":[1,3,5,7,-1,9,-1,11,13,-1,-1,-1,-1,15,17,-1,-1,-1,-1],"loss_changes":[7.2768885E-1,1.0344682E0,4.573887E-1,6.083928E-1,0E0,2.367669E-2,0E0,3.511414E-2,5.746827E-1,0E0,0E0,0E0,0E0,3.9381397E-1,4.1335484E-1,0E0,0E0,0E0,0E0],"parents":[2147483647,0,0,1,1,2,2,3,3,5,5,7,7,8,8,13,13,14,14],"right_children":[2,4,6,8,-1,10,-1,12,14,-1,-1,-1,-1,16,18,-1,-1,-1,-1],"split_conditions":[1.6293643E0,1.2058498E0,-1.3928998E0,-1.1588452E0,9.82473E-3,1.2294171E0,-7.7627213E-3,1.1575638E-1,-2.4031669E-1,-0E0,3.3245506E-3,4.098905E-3,4.567022E-4,-2.5273904E-1,-6.3702005E-1,-2.5320263E-3,3.7163363E-3,2.9084047E-3,-2.510075E-3],"split_indices":[102,102,101,103,0,2,0,101,74,0,0,0,0,85,56,0,0,0,0],"split_type":[0,0,0,0,0,0,0,0,0,0,0,0,0,0,0,0,0,0,0],"sum_hessian":[2.28E2,2.06E2,2.2E1,1.97E2,9E0,6E0,1.6E1,3.2E1,1.65E2,4E0,2E0,2.7E1,5E0,4.4E1,1.21E2,1.1E1,3.3E1,1.3E1,1.08E2],"tree_param":{"num_deleted":"0","num_feature":"105","num_nodes":"19","size_leaf_vector":"1"}},{"base_weights":[5.2489215E-3,1.22385E-1,-1.2127759E-2,4.1254614E-3,4.413719E-4,-7.0112552E-3,-2.0495073E-3,1.8587789E-2,-1.08034566E-1,2.9910102E-2,-7.2940476E-3,-2.4663169E-2,-3.0399674E-1,1.3279641E-4,5.3856643E-3,-3.7980566E-3,1.9383904E-3,-9.68729E-3,-5.067107E-4],"categories":[],"categories_nodes":[],"categories_segments":[],"categories_sizes":[],"default_left":[0,0,0,0,0,0,0,0,0,0,0,0,0,0,0,0,0,0,0],"id":46,"left_children":[1,3,5,-1,-1,-1,7,9,11,13,-1,15,17,-1,-1,-1,-1,-1,-1],"loss_changes":[5.193336E-1,3.6515206E-2,4.60538E-1,0E0,0E0,0E0,4.6808702E-1,5.0452846E-1,5.3145397E-1,6.251478E-1,0E0,2.509972E-1,1.4866114E-2,0E0,0E0,0E0,0E0,0E0,0E0],"parents":[2147483647,0,0,1,1,2,2,6,6,7,7,8,8,9,9,11,11,12,12],"right_children":[2,4,6,-1,-1,-1,8,10,12,14,-1,16,18,-1,-1,-1,-1,-1,-1],"split_conditions":[-1.2562428E0,1.1575638E-1,-1.0054617E0,4.1254614E-3,4.413719E-4,-7.0112552E-3,1.280713E0,1.5867357E0,2.3078673E-1,1.3942204E0,-7.2940476E-3,-1.6717055E-1,1.8730428E0,1.3279641E-4,5.3856643E-3,-3.7980566E-3,1.9383904E-3,-9.68729E-3,-5.067107E-4],"split_indices":[100,101,100,0,0,0,8,100,81,100,0,85,2,0,0,0,0,0,0],"split_type":[0,0,0,0,0,0,0,0,0,0,0,0,0,0,0,0,0,0,0],"sum_hessian":[2.48E2,3.2E1,2.16E2,2.7E1,5E0,8E0,2.08E2,1.74E2,3.4E1,1.68E2,6E0,2.5E1,9E0,1.45E2,2.3E1,1.2E1,1.3E1,8E0,1E0],"tree_param":{"num_deleted":"0","num_feature":"105","num_nodes":"19","size_leaf_vector":"1"}},{"base_weights":[4.1103885E-3,-1.6690707E-1,2.0719651E-2,4.3974917E-2,-2.2499546E-1,4.6886552E-2,-5.0671734E-2,-0E0,2.8251612E-3,-7.659357E-3,-0E0,2.0136947E-2,1.534744E-1,6.269826E-2,-1.2247817E-1,9.6527286E-2,-3.042824E-2,1.9341902E-1,-2.5305694E-3,1.0504212E-1,-1.396956E-1,-1.471974E-1,9.325475E-2,-0E0,4.617275E-3,-2.9660633E-3,1.1395206E-3,7.663796E-3,1.7582311E-3,1.8391883E-3,-2.722043E-3,4.7410894E-3,-0E0,-4.9476037E-3,-0E0,-5.8087613E-3,-7.0282427E-4,3.3063712E-3,-0E0],"categories":[],"categories_nodes":[],"categories_segments":[],"categories_sizes":[],"default_left":[0,0,0,0,0,0,0,0,0,0,0,0,0,0,0,0,0,0,0,0,0,0,0,0,0,0,0,0,0,0,0,0,0,0,0,0,0,0,0],"id":47,"left_children":[1,3,5,7,9,11,13,-1,-1,-1,-1,15,17,19,21,23,25,27,29,31,33,35,37,-1,-1,-1,-1,-1,-1,-1,-1,-1,-1,-1,-1,-1,-1,-1,-1],"loss_changes":[6.762341E-1,2.8524202E-1,4.1671357E-1,1.6936157E-2,1.17172E-1,4.4714233E-1,4.9395818E-1,0E0,0E0,0E0,0E0,5.2328503E-1,2.1898824E-1,2.0832174E-1,2.1643293E-1,3.022473E-1,3.844176E-1,1.7108035E-1,4.7920205E-2,1.0400431E-1,3.5364851E-3,1.6913569E-1,1.6545095E-3,0E0,0E0,0E0,0E0,0E0,0E0,0E0,0E0,0E0,0E0,0E0,0E0,0E0,0E0,0E0,0E0],"parents":[2147483647,0,0,1,1,2,2,3,3,4,4,5,5,6,6,11,11,12,12,13,13,14,14,15,15,16,16,17,17,18,18,19,19,20,20,21,21,22,22],"right_children":[2,4,6,8,10,12,14,-1,-1,-1,-1,16,18,20,22,24,26,28,30,32,34,36,38,-1,-1,-1,-1,-1,-1,-1,-1,-1,-1,-1,-1,-1,-1,-1,-1],"split_conditions":[-5.641854E-1,-5.1530385E-1,2.7413702E-1,-7.727763E-1,7.9474694E-1,3.141107E-1,-6.7166036E-1,-0E0,2.8251612E-3,-7.659357E-3,-0E0,-1.6263089E-1,6.4765155E-1,9.3205863E-1,1.1280473E0,-1.582522E-1,3.452579E-2,4.4260243E-1,-4.4636747E-1,1.6568753E-1,-4.826417E-1,6.151682E-1,-1.0390438E0,-0E0,4.617275E-3,-2.9660633E-3,1.1395206E-3,7.663796E-3,1.7582311E-3,1.8391883E-3,-2.722043E-3,4.7410894E-3,-0E0,-4.9476037E-3,-0E0,-5.8087613E-3,-7.0282427E-4,3.3063712E-3,-0E0],"split_indices":[79,80,60,2,31,77,3,0,0,0,0,50,18,7,101,34,70,101,41,35,2,30,4,0,0,0,0,0,0,0,0,0,0,0,0,0,0,0,0],"split_type":[0,0,0,0,0,0,0,0,0,0,0,0,0,0,0,0,0,0,0,0,0,0,0,0,0,0,0,0,0,0,0,0,0,0,0,0,0,0,0],"sum_hessian":[2.41E2,2E1,2.21E2,4E0,1.6E1,1.63E2,5.8E1,2E0,2E0,1.4E1,2E0,1.32E2,3.1E1,2.2E1,3.6E1,5.3E1,7.9E1,2.5E1,6E0,1.9E1,3E0,3.3E1,3E0,2E1,3.3E1,4E1,3.9E1,1.6E1,9E0,3E0,3E0,1.2E1,7E0,2E0,1E0,2.3E1,1E1,2E0,1E0],"tree_param":{"num_deleted":"0","num_feature":"105","num_nodes":"39","size_leaf_vector":"1"}},{"base_weights":[9.077049E-4,5.573705E-2,-4.635294E-2,7.961338E-2,-7.789479E-2,1.674869E-1,-6.461999E-2,5.372552E-3,1.2986356E-1,2.5575124E-2,-1.8382084E-1,6.6003385E-3,-0E0,7.6647545E-3,-7.586637E-2,1.6635823E-1,-2.9723272E-2,-1.915191E-2,1.7224884E-1,2.9548844E-3,-1.0634744E-2,-0E0,-8.09001E-3,-1.0948638E-1,3.1715347E-3,5.888093E-3,-0E0,1.4497507E-3,-2.974408E-3,3.3683553E-3,-3.034558E-3,7.461453E-3,1.7769078E-3,-6.3906057E-4,-0E0,-2.1810387E-3,-7.2642053E-3,2.5298204E-3,-3.9889044E-3],"categories":[],"categories_nodes":[],"categories_segments":[],"categories_sizes":[],"default_left":[0,0,0,0,0,0,0,0,0,0,0,0,0,0,0,0,0,0,0,0,0,0,0,0,0,0,0,0,0,0,0,0,0,0,0,0,0,0,0],"id":48,"left_children":[1,3,5,7,9,11,13,15,17,19,21,-1,-1,-1,23,25,27,29,31,-1,33,-1,-1,35,37,-1,-1,-1,-1,-1,-1,-1,-1,-1,-1,-1,-1,-1,-1],"loss_changes":[6.280181E-1,3.669154E-1,5.04439E-1,3.4764844E-1,2.068485E-1,1.067211E-1,4.3343282E-1,2.5025514E-1,3.7862414E-1,3.3597767E-2,1.3221088E-1,0E0,0E0,0E0,3.2187754E-1,4.8252255E-2,1.9409901E-1,1.5034941E-1,3.433689E-1,0E0,1.1365176E-3,0E0,0E0,3.559255E-1,3.93034E-1,0E0,0E0,0E0,0E0,0E0,0E0,0E0,0E0,0E0,0E0,0E0,0E0,0E0,0E0],"parents":[2147483647,0,0,1,1,2,2,3,3,4,4,5,5,6,6,7,7,8,8,9,9,10,10,14,14,15,15,16,16,17,17,18,18,20,20,23,23,24,24],"right_children":[2,4,6,8,10,12,14,16,18,20,22,-1,-1,-1,24,26,28,30,32,-1,34,-1,-1,36,38,-1,-1,-1,-1,-1,-1,-1,-1,-1,-1,-1,-1,-1,-1],"split_conditions":[-1.5716087E-2,4.0169883E-1,-6.407023E-1,-4.9232192E-2,-7.7284E-3,7.655854E-1,-8.681852E-1,-8.213031E-1,-8.875645E-1,3.285699E-1,-1.067303E0,6.6003385E-3,-0E0,7.6647545E-3,7.0505756E-1,1.3530139E0,-3.8926703E-1,-4.5506385E-1,1.1271145E-2,2.9548844E-3,-4.4026843E-1,-0E0,-8.09001E-3,1.141878E0,4.974702E-1,5.888093E-3,-0E0,1.4497507E-3,-2.974408E-3,3.3683553E-3,-3.034558E-3,7.461453E-3,1.7769078E-3,-6.3906057E-4,-0E0,-2.1810387E-3,-7.2642053E-3,2.5298204E-3,-3.9889044E-3],"split_indices":[50,87,76,91,81,7,96,24,24,1,32,0,0,0,11,5,102,48,60,0,4,0,0,102,101,0,0,0,0,0,0,0,0,0,0,0,0,0,0],"split_type":[0,0,0,0,0,0,0,0,0,0,0,0,0,0,0,0,0,0,0,0,0,0,0,0,0,0,0,0,0,0,0,0,0,0,0,0,0,0,0],"sum_hessian":[2.4E2,1.12E2,1.28E2,9.6E1,1.6E1,9E0,1.19E2,4E1,5.6E1,8E0,8E0,7E0,2E0,3E0,1.16E2,7E0,3.3E1,1.2E1,4.4E1,3E0,5E0,3E0,5E0,8.2E1,3.4E1,6E0,1E0,1.5E1,1.8E1,4E0,8E0,2.5E1,1.9E1,3E0,2E0,6.6E1,1.6E1,2.2E1,1.2E1],"tree_param":{"num_deleted":"0","num_feature":"105","num_nodes":"39","size_leaf_vector":"1"}},{"base_weights":[-6.5906945E-4,-1.3105515E-2,4.363051E-3,-6.9093674E-2,3.0924609E-2,-1.2209287E-1,3.9113313E-2,9.890256E-2,-5.492302E-2,-2.0716493E-1,-3.7916046E-2,1.1315243E-1,-1.1689144E-1,1.402186E-1,-7.808779E-2,-7.471038E-2,1.09054565E-1,2.6242582E-3,-7.2517823E-3,-2.1010155E-3,6.586931E-3,4.1704103E-3,-0E0,1.1934254E-3,-6.791614E-3,-0E0,5.002955E-3,-4.7509624E-3,2.3425505E-3,7.295421E-4,-3.327225E-3,-0E0,4.4802455E-3],"categories":[],"categories_nodes":[],"categories_segments":[],"categories_sizes":[],"default_left":[0,0,0,0,0,0,0,0,0,0,0,0,0,0,0,0,0,0,0,0,0,0,0,0,0,0,0,0,0,0,0,0,0],"id":49,"left_children":[1,3,-1,5,7,9,11,13,15,17,19,21,23,25,27,29,31,-1,-1,-1,-1,-1,-1,-1,-1,-1,-1,-1,-1,-1,-1,-1,-1],"loss_changes":[4.4144282E-1,5.754069E-1,0E0,6.0376644E-1,7.6264125E-1,4.6891367E-1,4.0556812E-1,5.509778E-1,1.8966001E-1,3.8279593E-1,3.0640313E-1,7.9212695E-2,2.1637087E-1,2.386663E-1,1.9591455E-1,1.9775236E-1,1.7854176E-2,0E0,0E0,0E0,0E0,0E0,0E0,0E0,0E0,0E0,0E0,0E0,0E0,0E0,0E0,0E0,0E0],"parents":[2147483647,0,0,1,1,3,3,4,4,5,5,6,6,7,7,8,8,9,9,10,10,11,11,12,12,13,13,14,14,15,15,16,16],"right_children":[2,4,-1,6,8,10,12,14,16,18,20,22,24,26,28,30,32,-1,-1,-1,-1,-1,-1,-1,-1,-1,-1,-1,-1,-1,-1,-1,-1],"split_conditions":[1.6433371E0,1.4920689E-2,4.363051E-3,4.7384393E-1,1.4606409E-1,-1.713028E-1,2.9101905E-1,3.899121E-1,1.3229928E0,-5.148421E-1,1.141878E0,3.3659154E-1,-7.922464E-1,-1.5392408E0,1.3376363E-1,-4.302826E-1,-1.4199994E0,2.6242582E-3,-7.2517823E-3,-2.1010155E-3,6.586931E-3,4.1704103E-3,-0E0,1.1934254E-3,-6.791614E-3,-0E0,5.002955E-3,-4.7509624E-3,2.3425505E-3,7.295421E-4,-3.327225E-3,-0E0,4.4802455E-3],"split_indices":[101,35,0,23,101,101,83,60,101,78,102,96,18,101,56,42,6,0,0,0,0,0,0,0,0,0,0,0,0,0,0,0,0],"split_type":[0,0,0,0,0,0,0,0,0,0,0,0,0,0,0,0,0,0,0,0,0,0,0,0,0,0,0,0,0,0,0,0,0],"sum_hessian":[2.48E2,2.3E2,1.8E1,1.02E2,1.28E2,6.9E1,3.3E1,7.2E1,5.6E1,3.3E1,3.6E1,2.3E1,1E1,5.9E1,1.3E1,5.1E1,5E0,3E0,3E1,3.3E1,3E0,1.9E1,4E0,4E0,6E0,9E0,5E1,9E0,4E0,1.3E1,3.8E1,2E0,3E0],"tree_param":{"num_deleted":"0","num_feature":"105","num_nodes":"33","size_leaf_vector":"1"}},{"base_weights":[1.09147625E-2,2.8565656E-2,-1.2958156E-1,1.4005553E-2,8.527629E-3,7.0792E-2,-2.4570827E-1,4.55435E-2,-5.3147264E-2,-0E0,4.6168277E-3,-3.3140765E-3,-8.535563E-3,-8.1411295E-2,7.36159E-2,-8.3376504E-2,3.8921987E-3,2.664208E-4,-7.620847E-3,3.509029E-3,5.076345E-4,3.5482945E-3,-3.092577E-3],"categories":[],"categories_nodes":[],"categories_segments":[],"categories_sizes":[],"default_left":[0,0,0,0,0,0,0,0,0,0,0,0,0,0,0,0,0,0,0,0,0,0,0],"id":50,"left_children":[1,3,5,7,-1,9,11,13,15,-1,-1,-1,-1,17,19,21,-1,-1,-1,-1,-1,-1,-1],"loss_changes":[5.813329E-1,7.5543785E-1,6.3987267E-1,4.2946827E-1,0E0,6.8302155E-2,1.8298388E-2,5.0059927E-1,3.6000758E-1,0E0,0E0,0E0,0E0,4.1641888E-1,2.6728082E-1,2.3324323E-1,0E0,0E0,0E0,0E0,0E0,0E0,0E0],"parents":[2147483647,0,0,1,1,2,2,3,3,5,5,6,6,7,7,8,8,13,13,14,14,15,15],"right_children":[2,4,6,8,-1,10,12,14,16,-1,-1,-1,-1,18,20,22,-1,-1,-1,-1,-1,-1,-1],"split_conditions":[1.6293643E0,1.2058498E0,-1.3928998E0,9.427604E-2,8.527629E-3,1.2294171E0,1.0029173E0,-2.1917424E0,1.5808086E0,-0E0,4.6168277E-3,-3.3140765E-3,-8.535563E-3,3.8804242E-1,1.2530726E-1,-3.130583E-1,3.8921987E-3,2.664208E-4,-7.620847E-3,3.509029E-3,5.076345E-4,3.5482945E-3,-3.092577E-3],"split_indices":[102,102,101,100,0,2,100,2,101,0,0,0,0,43,6,101,0,0,0,0,0,0,0],"split_type":[0,0,0,0,0,0,0,0,0,0,0,0,0,0,0,0,0,0,0,0,0,0,0],"sum_hessian":[2.36E2,2.11E2,2.5E1,2.01E2,1E1,9E0,1.6E1,1.38E2,6.3E1,5E0,4E0,5E0,1.1E1,2.4E1,1.14E2,5.5E1,8E0,1.6E1,8E0,6.3E1,5.1E1,4E0,5.1E1],"tree_param":{"num_deleted":"0","num_feature":"105","num_nodes":"23","size_leaf_vector":"1"}},{"base_weights":[4.1181254E-4,5.727612E-2,-3.73338E-2,1.3602796E-1,-2.8944554E-2,6.37518E-2,-8.0143E-2,1.895197E-1,-3.133344E-2,-9.768178E-2,1.0408894E-1,-1.1011562E-1,1.15955405E-1,8.459638E-2,-1.1032125E-1,7.2230205E-2,2.6053646E-1,4.4565783E-3,-1.3889976E-1,-1.228486E-1,-0E0,-4.1285597E-2,4.455151E-3,-5.9265685E-3,1.3628243E-3,4.3459805E-3,-0E0,5.8088726E-3,-1.0610073E-2,1.2666018E-1,-1.335994E-1,5.889699E-3,3.3760848E-4,-0E0,8.627064E-3,-6.0388313E-5,-5.7102297E-3,-4.195306E-3,6.2181137E-4,-6.784135E-4,1.1902635E-3,-0E0,-1.9267768E-3,1.2285031E-4,-0E0,-2.2580165E-3,5.2789104E-4,6.3221734E-3,-0E0,-5.536252E-3,-1.644307E-3],"categories":[],"categories_nodes":[],"categories_segments":[],"categories_sizes":[],"default_left":[0,0,0,0,0,0,0,0,0,0,0,0,0,0,0,0,0,0,0,0,0,0,0,0,0,0,0,0,0,0,0,0,0,0,0,0,0,0,0,0,0,0,0,0,0,0,0,0,0,0,0],"id":51,"left_children":[1,3,5,7,9,11,13,15,17,19,21,23,25,27,29,31,33,-1,35,37,39,41,-1,-1,-1,-1,43,-1,45,47,49,-1,-1,-1,-1,-1,-1,-1,-1,-1,-1,-1,-1,-1,-1,-1,-1,-1,-1,-1,-1],"loss_changes":[5.2355605E-1,6.8006915E-1,6.3422036E-1,4.8728448E-1,4.3931147E-1,4.0364218E-1,5.2397466E-1,2.810855E-1,2.712145E-1,8.7050885E-2,1.2016456E-1,1.6018851E-1,1.0947409E-1,1.8644619E-1,5.030668E-1,1.0566812E-1,1.9020581E-1,0E0,4.3756112E-2,7.825172E-2,8.342098E-3,5.5568977E-3,0E0,0E0,0E0,0E0,8.384555E-5,0E0,2.3505244E-2,9.371248E-2,2.910601E-1,0E0,0E0,0E0,0E0,0E0,0E0,0E0,0E0,0E0,0E0,0E0,0E0,0E0,0E0,0E0,0E0,0E0,0E0,0E0,0E0],"parents":[2147483647,0,0,1,1,2,2,3,3,4,4,5,5,6,6,7,7,8,8,9,9,10,10,11,11,12,12,13,13,14,14,15,15,16,16,18,18,19,19,20,20,21,21,26,26,28,28,29,29,30,30],"right_children":[2,4,6,8,10,12,14,16,18,20,22,24,26,28,30,32,34,-1,36,38,40,42,-1,-1,-1,-1,44,-1,46,48,50,-1,-1,-1,-1,-1,-1,-1,-1,-1,-1,-1,-1,-1,-1,-1,-1,-1,-1,-1,-1],"split_conditions":[-2.1953209E-1,1.4606409E-1,-7.4390537E-1,3.7135598E-1,1.3229928E0,-1.0706487E0,-3.903729E-1,-4.758871E-1,-7.0589226E-1,6.9648045E-1,-9.511048E-1,7.83389E-2,6.7201984E-1,-1.8465456E-2,-1.0013499E0,-4.3053076E-1,-1.6961663E0,4.4565783E-3,-1.0397316E0,1.8380345E0,-2.6510364E-1,-8.205062E0,4.455151E-3,-5.9265685E-3,1.3628243E-3,4.3459805E-3,-6.6840595E-1,5.8088726E-3,-4.939068E-1,1.7310396E-1,1.9314977E0,5.889699E-3,3.3760848E-4,-0E0,8.627064E-3,-6.0388313E-5,-5.7102297E-3,-4.195306E-3,6.2181137E-4,-6.784135E-4,1.1902635E-3,-0E0,-1.9267768E-3,1.2285031E-4,-0E0,-2.2580165E-3,5.2789104E-4,6.3221734E-3,-0E0,-5.536252E-3,-1.644307E-3],"split_indices":[17,101,102,91,101,15,63,100,16,102,15,0,101,30,38,69,101,0,23,18,18,0,0,0,0,0,15,0,57,9,1,0,0,0,0,0,0,0,0,0,0,0,0,0,0,0,0,0,0,0,0],"split_type":[0,0,0,0,0,0,0,0,0,0,0,0,0,0,0,0,0,0,0,0,0,0,0,0,0,0,0,0,0,0,0,0,0,0,0,0,0,0,0,0,0,0,0,0,0,0,0,0,0,0,0],"sum_hessian":[2.41E2,9.7E1,1.44E2,5.1E1,4.6E1,4.2E1,1.02E2,3.9E1,1.2E1,3.1E1,1.5E1,9E0,3.3E1,1.5E1,8.7E1,1.6E1,2.3E1,4E0,8E0,2.5E1,6E0,3E0,1.2E1,6E0,3E0,2.6E1,7E0,7E0,8E0,7E0,8E1,4E0,1.2E1,2E0,2.1E1,3E0,5E0,2.3E1,2E0,3E0,3E0,1E0,2E0,4E0,3E0,3E0,5E0,4E0,3E0,4.7E1,3.3E1],"tree_param":{"num_deleted":"0","num_feature":"105","num_nodes":"51","size_leaf_vector":"1"}},{"base_weights":[1.6427115E-2,-6.263537E-2,3.922506E-2,-0E0,-1.6609007E-1,6.870342E-2,-1.9701855E-2,5.7665125E-2,-8.8169634E-2,-2.2646125E-1,4.0315703E-2,1.1584374E-1,5.639315E-3,2.8987085E-2,-1.1187711E-1,-0E0,1.2720922E-1,2.1746881E-2,-1.1922236E-1,-0E0,-2.5628018E-1,1.6014983E-3,-0E0,1.8229613E-1,1.2159476E-2,-3.716654E-2,1.0124949E-1,-1.3414817E-2,1.3737608E-1,-0E0,-1.5009731E-1,-1.5946645E-3,1.5548194E-3,4.2669466E-3,-0E0,1.2709239E-3,-0E0,-3.7977786E-3,-0E0,-4.168469E-4,-7.984921E-3,-0E0,6.2299087E-3,2.3116665E-3,-6.9835423E-3,6.882775E-4,-3.3235378E-3,3.962752E-3,-4.416384E-4,-2.221463E-3,2.9758373E-3,5.521958E-3,-0E0,6.047006E-4,-0E0,-5.716282E-3,-0E0],"categories":[],"categories_nodes":[],"categories_segments":[],"categories_sizes":[],"default_left":[0,0,0,0,0,0,0,0,0,0,0,0,0,0,0,0,0,0,0,0,0,0,0,0,0,0,0,0,0,0,0,0,0,0,0,0,0,0,0,0,0,0,0,0,0,0,0,0,0,0,0,0,0,0,0,0,0],"id":52,"left_children":[1,3,5,7,9,11,13,15,17,19,21,23,25,27,29,31,33,35,37,-1,39,-1,-1,41,43,45,47,49,51,53,55,-1,-1,-1,-1,-1,-1,-1,-1,-1,-1,-1,-1,-1,-1,-1,-1,-1,-1,-1,-1,-1,-1,-1,-1,-1,-1],"loss_changes":[4.2369446E-1,3.477124E-1,3.2587442E-1,1.708911E-1,2.769637E-1,3.558333E-1,2.8529486E-1,9.1991246E-2,5.671195E-2,9.8958254E-2,4.2254385E-4,4.6064252E-1,2.3526853E-1,1.98075E-1,1.0763371E-1,3.589496E-2,2.0246506E-2,2.1706587E-3,3.903225E-3,0E0,1.8356442E-3,0E0,0E0,1.9985592E-1,4.6334612E-1,1.7948033E-1,7.8063965E-2,2.028413E-1,7.845397E-2,1.6251681E-3,8.898854E-2,0E0,0E0,0E0,0E0,0E0,0E0,0E0,0E0,0E0,0E0,0E0,0E0,0E0,0E0,0E0,0E0,0E0,0E0,0E0,0E0,0E0,0E0,0E0,0E0,0E0,0E0],"parents":[2147483647,0,0,1,1,2,2,3,3,4,4,5,5,6,6,7,7,8,8,9,9,10,10,11,11,12,12,13,13,14,14,15,15,16,16,17,17,18,18,20,20,23,23,24,24,25,25,26,26,27,27,28,28,29,29,30,30],"right_children":[2,4,6,8,10,12,14,16,18,20,22,24,26,28,30,32,34,36,38,-1,40,-1,-1,42,44,46,48,50,52,54,56,-1,-1,-1,-1,-1,-1,-1,-1,-1,-1,-1,-1,-1,-1,-1,-1,-1,-1,-1,-1,-1,-1,-1,-1,-1,-1],"split_conditions":[-5.829334E-1,8.1431985E-2,2.8676668E-1,3.0699798E-1,8.278502E-1,8.345568E-2,2.8575194E-1,1.8605654E-1,-2.6274214E0,-1.2000282E0,4.004965E-1,1.3532826E-1,1.1467632E0,7.281297E-1,-4.2784074E-1,-1.6698867E-1,1.5282607E0,-4.7431576E-1,2.2847235E0,-0E0,-6.7388296E0,1.6014983E-3,-0E0,-1.4531108E0,3.373396E-1,-1.0074439E-1,3.0213228E-1,2.9973242E-1,1.8798354E-1,9.700528E-1,2.7685096E0,-1.5946645E-3,1.5548194E-3,4.2669466E-3,-0E0,1.2709239E-3,-0E0,-3.7977786E-3,-0E0,-4.168469E-4,-7.984921E-3,-0E0,6.2299087E-3,2.3116665E-3,-6.9835423E-3,6.882775E-4,-3.3235378E-3,3.962752E-3,-4.416384E-4,-2.221463E-3,2.9758373E-3,5.521958E-3,-0E0,6.047006E-4,-0E0,-5.716282E-3,-0E0],"split_indices":[32,97,30,26,23,104,42,81,11,29,3,32,104,12,85,44,3,0,5,0,0,0,0,104,21,8,93,76,84,0,3,0,0,0,0,0,0,0,0,0,0,0,0,0,0,0,0,0,0,0,0,0,0,0,0,0,0],"split_type":[0,0,0,0,0,0,0,0,0,0,0,0,0,0,0,0,0,0,0,0,0,0,0,0,0,0,0,0,0,0,0,0,0,0,0,0,0,0,0,0,0,0,0,0,0,0,0,0,0,0,0,0,0,0,0,0,0],"sum_hessian":[2.34E2,5.1E1,1.83E2,3.2E1,1.9E1,1.23E2,6E1,2E1,1.2E1,1.5E1,4E0,6.9E1,5.4E1,3.9E1,2.1E1,1.1E1,9E0,2E0,1E1,2E0,1.3E1,2E0,2E0,4.1E1,2.8E1,3.7E1,1.7E1,2.8E1,1.1E1,5E0,1.6E1,6E0,5E0,8E0,1E0,1E0,1E0,9E0,1E0,1E0,1.2E1,5E0,3.6E1,2.3E1,5E0,2E1,1.7E1,1.4E1,3E0,1.9E1,9E0,8E0,3E0,3E0,2E0,1.2E1,4E0],"tree_param":{"num_deleted":"0","num_feature":"105","num_nodes":"57","size_leaf_vector":"1"}},{"base_weights":[7.6062256E-4,1.6817993E-2,-1.3593237E-1,-0E0,8.540446E-3,-2.2930963E-1,4.4439398E-2,6.004917E-2,-3.9220247E-2,-3.132753E-3,-7.929283E-3,-0E0,3.325875E-3,-2.1350574E-2,1.0000888E-1,3.721711E-2,-8.4886946E-2,-4.5936294E-3,8.227535E-4,4.115613E-3,1.2166535E-3,4.0688612E-3,-1.1099988E-3,-1.52652E-3,-7.0322733E-3],"categories":[],"categories_nodes":[],"categories_segments":[],"categories_sizes":[],"default_left":[0,0,0,0,0,0,0,0,0,0,0,0,0,0,0,0,0,0,0,0,0,0,0,0,0],"id":53,"left_children":[1,3,5,7,-1,9,11,13,15,-1,-1,-1,-1,17,19,21,23,-1,-1,-1,-1,-1,-1,-1,-1],"loss_changes":[5.237427E-1,9.916235E-1,4.4974297E-1,4.8950073E-1,0E0,9.831786E-3,3.1388234E-2,2.7672336E-1,4.4774705E-1,0E0,0E0,0E0,0E0,1.9030315E-1,1.0044372E-1,3.5816073E-1,3.6627847E-1,0E0,0E0,0E0,0E0,0E0,0E0,0E0,0E0],"parents":[2147483647,0,0,1,1,2,2,3,3,5,5,6,6,7,7,8,8,13,13,14,14,15,15,16,16],"right_children":[2,4,6,8,-1,10,12,14,16,-1,-1,-1,-1,18,20,22,24,-1,-1,-1,-1,-1,-1,-1,-1],"split_conditions":[1.6293643E0,1.2058498E0,2.0675008E0,-5.9084994E-1,8.540446E-3,1.0029173E0,1.2294171E0,-6.4250237E-1,-7.0677596E-1,-3.132753E-3,-7.929283E-3,-0E0,3.325875E-3,-3.8875002E-1,-9.399416E-1,-3.7125352E-1,3.9130178E-1,-4.5936294E-3,8.227535E-4,4.115613E-3,1.2166535E-3,4.0688612E-3,-1.1099988E-3,-1.52652E-3,-7.0322733E-3],"split_indices":[102,102,102,102,0,100,2,15,5,0,0,0,0,52,100,104,81,0,0,0,0,0,0,0,0],"split_type":[0,0,0,0,0,0,0,0,0,0,0,0,0,0,0,0,0,0,0,0,0,0,0,0,0],"sum_hessian":[2.42E2,2.18E2,2.4E1,2.06E2,1.2E1,1.6E1,8E0,8.1E1,1.25E2,5E0,1.1E1,5E0,3E0,2.6E1,5.5E1,4.6E1,7.9E1,7E0,1.9E1,3.2E1,2.3E1,2E1,2.6E1,6.6E1,1.3E1],"tree_param":{"num_deleted":"0","num_feature":"105","num_nodes":"25","size_leaf_vector":"1"}},{"base_weights":[-6.3910317E-3,9.453121E-3,-1.3309225E-1,-8.384693E-3,8.313519E-3,4.407232E-2,-2.2459507E-1,-2.216587E-2,3.913869E-3,-0E0,3.9388845E-3,-3.1865302E-3,-7.901036E-3,5.6024067E-2,-5.3209256E-2,-8.174225E-3,2.4955033E-3,1.45746E-3,-2.7401978E-3],"categories":[],"categories_nodes":[],"categories_segments":[],"categories_sizes":[],"default_left":[0,0,0,0,0,0,0,0,0,0,0,0,0,0,0,0,0,0,0],"id":54,"left_children":[1,3,5,7,-1,9,11,13,-1,-1,-1,-1,-1,15,17,-1,-1,-1,-1],"loss_changes":[5.0545305E-1,1.0700474E0,4.8186028E-1,3.8432452E-1,0E0,4.9531035E-2,2.2273839E-2,4.5902824E-1,0E0,0E0,0E0,0E0,0E0,4.76592E-1,5.365795E-1,0E0,0E0,0E0,0E0],"parents":[2147483647,0,0,1,1,2,2,3,3,5,5,6,6,7,7,13,13,14,14],"right_children":[2,4,6,8,-1,10,12,14,-1,-1,-1,-1,-1,16,18,-1,-1,-1,-1],"split_conditions":[1.6293643E0,1.2058498E0,-1.3928998E0,1.6433371E0,8.313519E-3,1.2294171E0,1.0029173E0,-8.5781366E-1,3.913869E-3,-0E0,3.9388845E-3,-3.1865302E-3,-7.901036E-3,-1.5356797E0,-3.130583E-1,-8.174225E-3,2.4955033E-3,1.45746E-3,-2.7401978E-3],"split_indices":[102,102,101,101,0,2,100,100,0,0,0,0,0,101,101,0,0,0,0],"split_type":[0,0,0,0,0,0,0,0,0,0,0,0,0,0,0,0,0,0,0],"sum_hessian":[2.44E2,2.17E2,2.7E1,2.04E2,1.3E1,9E0,1.8E1,1.87E2,1.7E1,6E0,3E0,6E0,1.2E1,5.2E1,1.35E2,3E0,4.9E1,3.6E1,9.9E1],"tree_param":{"num_deleted":"0","num_feature":"105","num_nodes":"19","size_leaf_vector":"1"}},{"base_weights":[-2.3527357E-3,-1.3829254E-2,3.8982192E-3,9.278089E-2,-3.2060895E-2,3.2210383E-3,3.9432364E-4,1.1710775E-1,-4.5464784E-2,-0E0,5.8695893E-3,-2.10989E-3,-9.291152E-2,-7.0948916E-4,7.45611E-3,2.4421292E-3,-3.6005408E-3],"categories":[],"categories_nodes":[],"categories_segments":[],"categories_sizes":[],"default_left":[0,0,0,0,0,0,0,0,0,0,0,0,0,0,0,0,0],"id":55,"left_children":[1,3,-1,5,7,-1,-1,9,11,-1,-1,13,15,-1,-1,-1,-1],"loss_changes":[3.4394217E-1,4.1673708E-1,0E0,2.2549182E-2,3.700558E-1,0E0,0E0,1.388074E-1,3.4411412E-1,0E0,0E0,4.800852E-1,3.963639E-1,0E0,0E0,0E0,0E0],"parents":[2147483647,0,0,1,1,3,3,4,4,7,7,8,8,11,11,12,12],"right_children":[2,4,-1,6,8,-1,-1,10,12,-1,-1,14,16,-1,-1,-1,-1],"split_conditions":[1.6433371E0,-1.2562428E0,3.8982192E-3,1.1575638E-1,-6.472665E-1,3.2210383E-3,3.9432364E-4,-4.1263872E-1,3.485178E-2,-0E0,5.8695893E-3,7.1241677E-1,-4.06849E-1,-7.0948916E-4,7.45611E-3,2.4421292E-3,-3.6005408E-3],"split_indices":[101,100,0,101,76,0,0,77,95,0,0,75,74,0,0,0,0],"split_type":[0,0,0,0,0,0,0,0,0,0,0,0,0,0,0,0,0],"sum_hessian":[2.32E2,2.15E2,1.7E1,3E1,1.85E2,2.4E1,6E0,1.4E1,1.71E2,6E0,8E0,9.1E1,8E1,8.5E1,6E0,1E1,7E1],"tree_param":{"num_deleted":"0","num_feature":"105","num_nodes":"17","size_leaf_vector":"1"}},{"base_weights":[3.5489753E-3,1.66356E-2,-1.3326123E-1,1.0495646E-3,7.8056715E-3,3.4228815E-3,-1.9302171E-1,-6.338726E-2,2.7531082E-2,-7.7130953E-3,-8.0106355E-4,5.5730483E-3,-1.2667195E-1,6.1176836E-2,-3.0422816E-2,-5.4856325E-3,1.5192317E-3,-4.5628464E-3,1.5480255E-3,2.875497E-3,-8.642145E-4,-6.065561E-3,2.64493E-4],"categories":[],"categories_nodes":[],"categories_segments":[],"categories_sizes":[],"default_left":[0,0,0,0,0,0,0,0,0,0,0,0,0,0,0,0,0,0,0,0,0,0,0],"id":56,"left_children":[1,3,5,7,-1,-1,9,11,13,-1,-1,15,17,19,21,-1,-1,-1,-1,-1,-1,-1,-1],"loss_changes":[3.916003E-1,7.5558585E-1,3.1077725E-1,3.3090454E-1,0E0,0E0,1.3528222E-1,2.572072E-1,2.7792293E-1,0E0,0E0,2.2532399E-1,1.5386418E-1,2.9026732E-1,3.64851E-1,0E0,0E0,0E0,0E0,0E0,0E0,0E0,0E0],"parents":[2147483647,0,0,1,1,2,2,3,3,6,6,7,7,8,8,11,11,12,12,13,13,14,14],"right_children":[2,4,6,8,-1,-1,10,12,14,-1,-1,16,18,20,22,-1,-1,-1,-1,-1,-1,-1,-1],"split_conditions":[1.4978077E0,1.4748012E0,-1.0337125E0,-2.2680195E-1,7.8056715E-3,3.4228815E-3,2.2995426E-1,-5.5710506E-1,1.0943674E-1,-7.7130953E-3,-8.0106355E-4,-2.6373655E-1,6.063516E-1,2.8377038E-1,-4.4860658E-1,-5.4856325E-3,1.5192317E-3,-4.5628464E-3,1.5480255E-3,2.875497E-3,-8.642145E-4,-6.065561E-3,2.64493E-4],"split_indices":[103,103,36,92,0,0,64,103,78,0,0,96,74,44,44,0,0,0,0,0,0,0,0],"split_type":[0,0,0,0,0,0,0,0,0,0,0,0,0,0,0,0,0,0,0,0,0,0,0],"sum_hessian":[2.23E2,2.05E2,1.8E1,1.94E2,1.1E1,3E0,1.5E1,5.5E1,1.39E2,1E1,5E0,2.6E1,2.9E1,8.9E1,5E1,4E0,2.2E1,2.6E1,3E0,6.5E1,2.4E1,9E0,4.1E1],"tree_param":{"num_deleted":"0","num_feature":"105","num_nodes":"23","size_leaf_vector":"1"}},{"base_weights":[-0E0,7.233426E-3,-5.9138383E-3,-1.1600985E-1,2.0096354E-2,6.951148E-2,-1.5422434E-1,2.9296005E-2,-1.6418597E-1,2.627715E-3,-0E0,-1.7564741E-1,-0E0,8.7609E-2,1.671326E-3,-5.393865E-3,-0E0,-5.7275435E-3,-2.2234164E-4,3.7995523E-3,